digraph Tree {
node [shape=box, style="filled, rounded", color="black", fontname="helvetica"] ;
edge [fontname="helvetica"] ;
0 [label=<IDADE &le; -1.228<br/>gini = 0.5<br/>samples = 1880<br/>value = [942, 938]<br/>class = Não Obito>, fillcolor="#fffefe"] ;
1 [label=<CONCENTRACAO_FOCOS_CALOR &le; 0.32<br/>gini = 0.285<br/>samples = 215<br/>value = [178, 37]<br/>class = Não Obito>, fillcolor="#ea9b62"] ;
0 -> 1 [labeldistance=2.5, labelangle=45, headlabel="True"] ;
2 [label=<SE_IS &le; 2.677<br/>gini = 0.251<br/>samples = 204<br/>value = [174, 30]<br/>class = Não Obito>, fillcolor="#e9975b"] ;
1 -> 2 ;
3 [label=<TAXA_VACINACAO &le; -1.859<br/>gini = 0.233<br/>samples = 201<br/>value = [174, 27]<br/>class = Não Obito>, fillcolor="#e99558"] ;
2 -> 3 ;
4 [label=<gini = 0.0<br/>samples = 2<br/>value = [0, 2]<br/>class = Óbito>, fillcolor="#399de5"] ;
3 -> 4 ;
5 [label=<TAXA_MORTALIDADE &le; -0.361<br/>gini = 0.22<br/>samples = 199<br/>value = [174, 25]<br/>class = Não Obito>, fillcolor="#e99355"] ;
3 -> 5 ;
6 [label=<SE_IS &le; -0.621<br/>gini = 0.318<br/>samples = 101<br/>value = [81, 20]<br/>class = Não Obito>, fillcolor="#eba06a"] ;
5 -> 6 ;
7 [label=<COD_MUN_LPI &le; -0.425<br/>gini = 0.32<br/>samples = 5<br/>value = [1, 4]<br/>class = Óbito>, fillcolor="#6ab6ec"] ;
6 -> 7 ;
8 [label=<gini = 0.0<br/>samples = 1<br/>value = [1, 0]<br/>class = Não Obito>, fillcolor="#e58139"] ;
7 -> 8 ;
9 [label=<gini = 0.0<br/>samples = 4<br/>value = [0, 4]<br/>class = Óbito>, fillcolor="#399de5"] ;
7 -> 9 ;
10 [label=<SEXO &le; -0.368<br/>gini = 0.278<br/>samples = 96<br/>value = [80, 16]<br/>class = Não Obito>, fillcolor="#ea9a61"] ;
6 -> 10 ;
11 [label=<GINI &le; -1.172<br/>gini = 0.206<br/>samples = 77<br/>value = [68, 9]<br/>class = Não Obito>, fillcolor="#e89253"] ;
10 -> 11 ;
12 [label=<SE_IS &le; -0.536<br/>gini = 0.444<br/>samples = 15<br/>value = [10, 5]<br/>class = Não Obito>, fillcolor="#f2c09c"] ;
11 -> 12 ;
13 [label=<gini = 0.0<br/>samples = 3<br/>value = [0, 3]<br/>class = Óbito>, fillcolor="#399de5"] ;
12 -> 13 ;
14 [label=<TAXA_MORTALIDADE &le; -0.435<br/>gini = 0.278<br/>samples = 12<br/>value = [10, 2]<br/>class = Não Obito>, fillcolor="#ea9a61"] ;
12 -> 14 ;
15 [label=<gini = 0.0<br/>samples = 8<br/>value = [8, 0]<br/>class = Não Obito>, fillcolor="#e58139"] ;
14 -> 15 ;
16 [label=<SE_IS &le; -0.451<br/>gini = 0.5<br/>samples = 4<br/>value = [2, 2]<br/>class = Não Obito>, fillcolor="#ffffff"] ;
14 -> 16 ;
17 [label=<gini = 0.0<br/>samples = 2<br/>value = [0, 2]<br/>class = Óbito>, fillcolor="#399de5"] ;
16 -> 17 ;
18 [label=<gini = 0.0<br/>samples = 2<br/>value = [2, 0]<br/>class = Não Obito>, fillcolor="#e58139"] ;
16 -> 18 ;
19 [label=<IDADE &le; -1.51<br/>gini = 0.121<br/>samples = 62<br/>value = [58, 4]<br/>class = Não Obito>, fillcolor="#e78a47"] ;
11 -> 19 ;
20 [label=<gini = 0.0<br/>samples = 38<br/>value = [38, 0]<br/>class = Não Obito>, fillcolor="#e58139"] ;
19 -> 20 ;
21 [label=<COD_MUN_LPI &le; -3.38<br/>gini = 0.278<br/>samples = 24<br/>value = [20, 4]<br/>class = Não Obito>, fillcolor="#ea9a61"] ;
19 -> 21 ;
22 [label=<gini = 0.0<br/>samples = 1<br/>value = [0, 1]<br/>class = Óbito>, fillcolor="#399de5"] ;
21 -> 22 ;
23 [label=<COD_MUN_LPI &le; 0.127<br/>gini = 0.227<br/>samples = 23<br/>value = [20, 3]<br/>class = Não Obito>, fillcolor="#e99457"] ;
21 -> 23 ;
24 [label=<gini = 0.0<br/>samples = 13<br/>value = [13, 0]<br/>class = Não Obito>, fillcolor="#e58139"] ;
23 -> 24 ;
25 [label=<IDADE &le; -1.323<br/>gini = 0.42<br/>samples = 10<br/>value = [7, 3]<br/>class = Não Obito>, fillcolor="#f0b78e"] ;
23 -> 25 ;
26 [label=<SE_IS &le; -0.071<br/>gini = 0.245<br/>samples = 7<br/>value = [6, 1]<br/>class = Não Obito>, fillcolor="#e9965a"] ;
25 -> 26 ;
27 [label=<gini = 0.0<br/>samples = 6<br/>value = [6, 0]<br/>class = Não Obito>, fillcolor="#e58139"] ;
26 -> 27 ;
28 [label=<gini = 0.0<br/>samples = 1<br/>value = [0, 1]<br/>class = Óbito>, fillcolor="#399de5"] ;
26 -> 28 ;
29 [label=<COBERTURA_VEGETAL_NATURAL &le; 1.263<br/>gini = 0.444<br/>samples = 3<br/>value = [1, 2]<br/>class = Óbito>, fillcolor="#9ccef2"] ;
25 -> 29 ;
30 [label=<gini = 0.0<br/>samples = 2<br/>value = [0, 2]<br/>class = Óbito>, fillcolor="#399de5"] ;
29 -> 30 ;
31 [label=<gini = 0.0<br/>samples = 1<br/>value = [1, 0]<br/>class = Não Obito>, fillcolor="#e58139"] ;
29 -> 31 ;
32 [label=<SEXO &le; 1.587<br/>gini = 0.465<br/>samples = 19<br/>value = [12, 7]<br/>class = Não Obito>, fillcolor="#f4caac"] ;
10 -> 32 ;
33 [label=<gini = 0.0<br/>samples = 2<br/>value = [0, 2]<br/>class = Óbito>, fillcolor="#399de5"] ;
32 -> 33 ;
34 [label=<IDADE &le; -2.039<br/>gini = 0.415<br/>samples = 17<br/>value = [12, 5]<br/>class = Não Obito>, fillcolor="#f0b58b"] ;
32 -> 34 ;
35 [label=<gini = 0.0<br/>samples = 1<br/>value = [0, 1]<br/>class = Óbito>, fillcolor="#399de5"] ;
34 -> 35 ;
36 [label=<COD_MUN_LPI &le; 0.133<br/>gini = 0.375<br/>samples = 16<br/>value = [12, 4]<br/>class = Não Obito>, fillcolor="#eeab7b"] ;
34 -> 36 ;
37 [label=<SE_IS &le; -0.113<br/>gini = 0.26<br/>samples = 13<br/>value = [11, 2]<br/>class = Não Obito>, fillcolor="#ea985d"] ;
36 -> 37 ;
38 [label=<ANO_IS &le; -0.419<br/>gini = 0.408<br/>samples = 7<br/>value = [5, 2]<br/>class = Não Obito>, fillcolor="#efb388"] ;
37 -> 38 ;
39 [label=<gini = 0.0<br/>samples = 2<br/>value = [2, 0]<br/>class = Não Obito>, fillcolor="#e58139"] ;
38 -> 39 ;
40 [label=<IDADE &le; -1.357<br/>gini = 0.48<br/>samples = 5<br/>value = [3, 2]<br/>class = Não Obito>, fillcolor="#f6d5bd"] ;
38 -> 40 ;
41 [label=<IDADE &le; -1.785<br/>gini = 0.444<br/>samples = 3<br/>value = [1, 2]<br/>class = Óbito>, fillcolor="#9ccef2"] ;
40 -> 41 ;
42 [label=<gini = 0.0<br/>samples = 1<br/>value = [1, 0]<br/>class = Não Obito>, fillcolor="#e58139"] ;
41 -> 42 ;
43 [label=<gini = 0.0<br/>samples = 2<br/>value = [0, 2]<br/>class = Óbito>, fillcolor="#399de5"] ;
41 -> 43 ;
44 [label=<gini = 0.0<br/>samples = 2<br/>value = [2, 0]<br/>class = Não Obito>, fillcolor="#e58139"] ;
40 -> 44 ;
45 [label=<gini = 0.0<br/>samples = 6<br/>value = [6, 0]<br/>class = Não Obito>, fillcolor="#e58139"] ;
37 -> 45 ;
46 [label=<IDADE &le; -1.417<br/>gini = 0.444<br/>samples = 3<br/>value = [1, 2]<br/>class = Óbito>, fillcolor="#9ccef2"] ;
36 -> 46 ;
47 [label=<gini = 0.0<br/>samples = 1<br/>value = [1, 0]<br/>class = Não Obito>, fillcolor="#e58139"] ;
46 -> 47 ;
48 [label=<gini = 0.0<br/>samples = 2<br/>value = [0, 2]<br/>class = Óbito>, fillcolor="#399de5"] ;
46 -> 48 ;
49 [label=<IDADE &le; -1.29<br/>gini = 0.097<br/>samples = 98<br/>value = [93, 5]<br/>class = Não Obito>, fillcolor="#e68844"] ;
5 -> 49 ;
50 [label=<MACACOS_NUM_CASOS &le; -0.392<br/>gini = 0.065<br/>samples = 89<br/>value = [86, 3]<br/>class = Não Obito>, fillcolor="#e68540"] ;
49 -> 50 ;
51 [label=<gini = 0.0<br/>samples = 54<br/>value = [54, 0]<br/>class = Não Obito>, fillcolor="#e58139"] ;
50 -> 51 ;
52 [label=<CLASSIFIC_INST_SANITARIAS &le; -1.085<br/>gini = 0.157<br/>samples = 35<br/>value = [32, 3]<br/>class = Não Obito>, fillcolor="#e78d4c"] ;
50 -> 52 ;
53 [label=<gini = 0.0<br/>samples = 1<br/>value = [0, 1]<br/>class = Óbito>, fillcolor="#399de5"] ;
52 -> 53 ;
54 [label=<IDADE &le; -1.448<br/>gini = 0.111<br/>samples = 34<br/>value = [32, 2]<br/>class = Não Obito>, fillcolor="#e78945"] ;
52 -> 54 ;
55 [label=<gini = 0.0<br/>samples = 25<br/>value = [25, 0]<br/>class = Não Obito>, fillcolor="#e58139"] ;
54 -> 55 ;
56 [label=<SE_IS &le; -0.521<br/>gini = 0.346<br/>samples = 9<br/>value = [7, 2]<br/>class = Não Obito>, fillcolor="#eca572"] ;
54 -> 56 ;
57 [label=<IDHM &le; 0.709<br/>gini = 0.48<br/>samples = 5<br/>value = [3, 2]<br/>class = Não Obito>, fillcolor="#f6d5bd"] ;
56 -> 57 ;
58 [label=<gini = 0.0<br/>samples = 2<br/>value = [2, 0]<br/>class = Não Obito>, fillcolor="#e58139"] ;
57 -> 58 ;
59 [label=<SE_IS &le; -0.621<br/>gini = 0.444<br/>samples = 3<br/>value = [1, 2]<br/>class = Óbito>, fillcolor="#9ccef2"] ;
57 -> 59 ;
60 [label=<gini = 0.0<br/>samples = 1<br/>value = [1, 0]<br/>class = Não Obito>, fillcolor="#e58139"] ;
59 -> 60 ;
61 [label=<gini = 0.0<br/>samples = 2<br/>value = [0, 2]<br/>class = Óbito>, fillcolor="#399de5"] ;
59 -> 61 ;
62 [label=<gini = 0.0<br/>samples = 4<br/>value = [4, 0]<br/>class = Não Obito>, fillcolor="#e58139"] ;
56 -> 62 ;
63 [label=<IDADE &le; -1.259<br/>gini = 0.346<br/>samples = 9<br/>value = [7, 2]<br/>class = Não Obito>, fillcolor="#eca572"] ;
49 -> 63 ;
64 [label=<gini = 0.0<br/>samples = 1<br/>value = [0, 1]<br/>class = Óbito>, fillcolor="#399de5"] ;
63 -> 64 ;
65 [label=<MACACOS_NUM_CASOS &le; 1.285<br/>gini = 0.219<br/>samples = 8<br/>value = [7, 1]<br/>class = Não Obito>, fillcolor="#e99355"] ;
63 -> 65 ;
66 [label=<SE_IS &le; -0.578<br/>gini = 0.32<br/>samples = 5<br/>value = [4, 1]<br/>class = Não Obito>, fillcolor="#eca06a"] ;
65 -> 66 ;
67 [label=<gini = 0.0<br/>samples = 1<br/>value = [1, 0]<br/>class = Não Obito>, fillcolor="#e58139"] ;
66 -> 67 ;
68 [label=<SE_IS &le; -0.282<br/>gini = 0.375<br/>samples = 4<br/>value = [3, 1]<br/>class = Não Obito>, fillcolor="#eeab7b"] ;
66 -> 68 ;
69 [label=<gini = 0.444<br/>samples = 3<br/>value = [2, 1]<br/>class = Não Obito>, fillcolor="#f2c09c"] ;
68 -> 69 ;
70 [label=<gini = 0.0<br/>samples = 1<br/>value = [1, 0]<br/>class = Não Obito>, fillcolor="#e58139"] ;
68 -> 70 ;
71 [label=<gini = 0.0<br/>samples = 3<br/>value = [3, 0]<br/>class = Não Obito>, fillcolor="#e58139"] ;
65 -> 71 ;
72 [label=<gini = 0.0<br/>samples = 3<br/>value = [0, 3]<br/>class = Óbito>, fillcolor="#399de5"] ;
2 -> 72 ;
73 [label=<SE_IS &le; 0.225<br/>gini = 0.463<br/>samples = 11<br/>value = [4, 7]<br/>class = Óbito>, fillcolor="#aad5f4"] ;
1 -> 73 ;
74 [label=<SEXO &le; 0.809<br/>gini = 0.219<br/>samples = 8<br/>value = [1, 7]<br/>class = Óbito>, fillcolor="#55abe9"] ;
73 -> 74 ;
75 [label=<gini = 0.0<br/>samples = 7<br/>value = [0, 7]<br/>class = Óbito>, fillcolor="#399de5"] ;
74 -> 75 ;
76 [label=<gini = 0.0<br/>samples = 1<br/>value = [1, 0]<br/>class = Não Obito>, fillcolor="#e58139"] ;
74 -> 76 ;
77 [label=<gini = 0.0<br/>samples = 3<br/>value = [3, 0]<br/>class = Não Obito>, fillcolor="#e58139"] ;
73 -> 77 ;
78 [label=<SEXO &le; 1.873<br/>gini = 0.497<br/>samples = 1665<br/>value = [764, 901]<br/>class = Óbito>, fillcolor="#e1f0fb"] ;
0 -> 78 [labeldistance=2.5, labelangle=-45, headlabel="False"] ;
79 [label=<IDADE &le; 1.075<br/>gini = 0.488<br/>samples = 1425<br/>value = [601, 824]<br/>class = Óbito>, fillcolor="#c9e4f8"] ;
78 -> 79 ;
80 [label=<SE_IS &le; 0.015<br/>gini = 0.496<br/>samples = 1185<br/>value = [537, 648]<br/>class = Óbito>, fillcolor="#ddeefb"] ;
79 -> 80 ;
81 [label=<TAXA_VACINACAO &le; 0.897<br/>gini = 0.5<br/>samples = 851<br/>value = [429, 422]<br/>class = Não Obito>, fillcolor="#fffdfc"] ;
80 -> 81 ;
82 [label=<TAXA_MORTALIDADE &le; -0.239<br/>gini = 0.497<br/>samples = 697<br/>value = [322, 375]<br/>class = Óbito>, fillcolor="#e3f1fb"] ;
81 -> 82 ;
83 [label=<IDHM &le; -0.054<br/>gini = 0.482<br/>samples = 461<br/>value = [187, 274]<br/>class = Óbito>, fillcolor="#c0e0f7"] ;
82 -> 83 ;
84 [label=<IDHM &le; -1.82<br/>gini = 0.426<br/>samples = 208<br/>value = [64, 144]<br/>class = Óbito>, fillcolor="#91c9f1"] ;
83 -> 84 ;
85 [label=<IDADE &le; 0.065<br/>gini = 0.498<br/>samples = 43<br/>value = [23, 20]<br/>class = Não Obito>, fillcolor="#fcefe5"] ;
84 -> 85 ;
86 [label=<GINI &le; 0.022<br/>gini = 0.434<br/>samples = 22<br/>value = [7, 15]<br/>class = Óbito>, fillcolor="#95cbf1"] ;
85 -> 86 ;
87 [label=<gini = 0.0<br/>samples = 3<br/>value = [3, 0]<br/>class = Não Obito>, fillcolor="#e58139"] ;
86 -> 87 ;
88 [label=<IDADE &le; -1.012<br/>gini = 0.332<br/>samples = 19<br/>value = [4, 15]<br/>class = Óbito>, fillcolor="#6eb7ec"] ;
86 -> 88 ;
89 [label=<gini = 0.0<br/>samples = 1<br/>value = [1, 0]<br/>class = Não Obito>, fillcolor="#e58139"] ;
88 -> 89 ;
90 [label=<SE_IS &le; -0.413<br/>gini = 0.278<br/>samples = 18<br/>value = [3, 15]<br/>class = Óbito>, fillcolor="#61b1ea"] ;
88 -> 90 ;
91 [label=<IDADE &le; -0.456<br/>gini = 0.133<br/>samples = 14<br/>value = [1, 13]<br/>class = Óbito>, fillcolor="#48a5e7"] ;
90 -> 91 ;
92 [label=<TAXA_MORTALIDADE &le; -0.401<br/>gini = 0.444<br/>samples = 3<br/>value = [1, 2]<br/>class = Óbito>, fillcolor="#9ccef2"] ;
91 -> 92 ;
93 [label=<gini = 0.0<br/>samples = 2<br/>value = [0, 2]<br/>class = Óbito>, fillcolor="#399de5"] ;
92 -> 93 ;
94 [label=<gini = 0.0<br/>samples = 1<br/>value = [1, 0]<br/>class = Não Obito>, fillcolor="#e58139"] ;
92 -> 94 ;
95 [label=<gini = 0.0<br/>samples = 11<br/>value = [0, 11]<br/>class = Óbito>, fillcolor="#399de5"] ;
91 -> 95 ;
96 [label=<IDADE &le; -0.763<br/>gini = 0.5<br/>samples = 4<br/>value = [2, 2]<br/>class = Não Obito>, fillcolor="#ffffff"] ;
90 -> 96 ;
97 [label=<gini = 0.0<br/>samples = 1<br/>value = [0, 1]<br/>class = Óbito>, fillcolor="#399de5"] ;
96 -> 97 ;
98 [label=<IDADE &le; -0.421<br/>gini = 0.444<br/>samples = 3<br/>value = [2, 1]<br/>class = Não Obito>, fillcolor="#f2c09c"] ;
96 -> 98 ;
99 [label=<gini = 0.5<br/>samples = 2<br/>value = [1, 1]<br/>class = Não Obito>, fillcolor="#ffffff"] ;
98 -> 99 ;
100 [label=<gini = 0.0<br/>samples = 1<br/>value = [1, 0]<br/>class = Não Obito>, fillcolor="#e58139"] ;
98 -> 100 ;
101 [label=<TAXA_MORTALIDADE &le; -0.462<br/>gini = 0.363<br/>samples = 21<br/>value = [16, 5]<br/>class = Não Obito>, fillcolor="#eda877"] ;
85 -> 101 ;
102 [label=<gini = 0.0<br/>samples = 5<br/>value = [5, 0]<br/>class = Não Obito>, fillcolor="#e58139"] ;
101 -> 102 ;
103 [label=<SE_IS &le; -0.531<br/>gini = 0.43<br/>samples = 16<br/>value = [11, 5]<br/>class = Não Obito>, fillcolor="#f1ba93"] ;
101 -> 103 ;
104 [label=<SE_IS &le; -0.648<br/>gini = 0.5<br/>samples = 6<br/>value = [3, 3]<br/>class = Não Obito>, fillcolor="#ffffff"] ;
103 -> 104 ;
105 [label=<gini = 0.0<br/>samples = 2<br/>value = [2, 0]<br/>class = Não Obito>, fillcolor="#e58139"] ;
104 -> 105 ;
106 [label=<IDADE &le; 0.1<br/>gini = 0.375<br/>samples = 4<br/>value = [1, 3]<br/>class = Óbito>, fillcolor="#7bbeee"] ;
104 -> 106 ;
107 [label=<gini = 0.5<br/>samples = 2<br/>value = [1, 1]<br/>class = Não Obito>, fillcolor="#ffffff"] ;
106 -> 107 ;
108 [label=<gini = 0.0<br/>samples = 2<br/>value = [0, 2]<br/>class = Óbito>, fillcolor="#399de5"] ;
106 -> 108 ;
109 [label=<IDADE &le; 0.389<br/>gini = 0.32<br/>samples = 10<br/>value = [8, 2]<br/>class = Não Obito>, fillcolor="#eca06a"] ;
103 -> 109 ;
110 [label=<gini = 0.0<br/>samples = 5<br/>value = [5, 0]<br/>class = Não Obito>, fillcolor="#e58139"] ;
109 -> 110 ;
111 [label=<COBERTURA_VEGETAL_NATURAL &le; -0.124<br/>gini = 0.48<br/>samples = 5<br/>value = [3, 2]<br/>class = Não Obito>, fillcolor="#f6d5bd"] ;
109 -> 111 ;
112 [label=<IDADE &le; 0.482<br/>gini = 0.444<br/>samples = 3<br/>value = [1, 2]<br/>class = Óbito>, fillcolor="#9ccef2"] ;
111 -> 112 ;
113 [label=<gini = 0.0<br/>samples = 1<br/>value = [0, 1]<br/>class = Óbito>, fillcolor="#399de5"] ;
112 -> 113 ;
114 [label=<SE_IS &le; -0.451<br/>gini = 0.5<br/>samples = 2<br/>value = [1, 1]<br/>class = Não Obito>, fillcolor="#ffffff"] ;
112 -> 114 ;
115 [label=<gini = 0.0<br/>samples = 1<br/>value = [1, 0]<br/>class = Não Obito>, fillcolor="#e58139"] ;
114 -> 115 ;
116 [label=<gini = 0.0<br/>samples = 1<br/>value = [0, 1]<br/>class = Óbito>, fillcolor="#399de5"] ;
114 -> 116 ;
117 [label=<gini = 0.0<br/>samples = 2<br/>value = [2, 0]<br/>class = Não Obito>, fillcolor="#e58139"] ;
111 -> 117 ;
118 [label=<SE_IS &le; -0.413<br/>gini = 0.373<br/>samples = 165<br/>value = [41, 124]<br/>class = Óbito>, fillcolor="#7abdee"] ;
84 -> 118 ;
119 [label=<TAXA_MORTALIDADE &le; -0.769<br/>gini = 0.172<br/>samples = 63<br/>value = [6, 57]<br/>class = Óbito>, fillcolor="#4ea7e8"] ;
118 -> 119 ;
120 [label=<gini = 0.0<br/>samples = 2<br/>value = [2, 0]<br/>class = Não Obito>, fillcolor="#e58139"] ;
119 -> 120 ;
121 [label=<SOBRE60 &le; -2.085<br/>gini = 0.123<br/>samples = 61<br/>value = [4, 57]<br/>class = Óbito>, fillcolor="#47a4e7"] ;
119 -> 121 ;
122 [label=<SE_IS &le; -0.578<br/>gini = 0.5<br/>samples = 2<br/>value = [1, 1]<br/>class = Não Obito>, fillcolor="#ffffff"] ;
121 -> 122 ;
123 [label=<gini = 0.0<br/>samples = 1<br/>value = [0, 1]<br/>class = Óbito>, fillcolor="#399de5"] ;
122 -> 123 ;
124 [label=<gini = 0.0<br/>samples = 1<br/>value = [1, 0]<br/>class = Não Obito>, fillcolor="#e58139"] ;
122 -> 124 ;
125 [label=<SOBRE60 &le; 0.376<br/>gini = 0.097<br/>samples = 59<br/>value = [3, 56]<br/>class = Óbito>, fillcolor="#44a2e6"] ;
121 -> 125 ;
126 [label=<CLASSIFIC_INST_SANITARIAS &le; 0.797<br/>gini = 0.069<br/>samples = 56<br/>value = [2, 54]<br/>class = Óbito>, fillcolor="#40a1e6"] ;
125 -> 126 ;
127 [label=<gini = 0.0<br/>samples = 32<br/>value = [0, 32]<br/>class = Óbito>, fillcolor="#399de5"] ;
126 -> 127 ;
128 [label=<IDADE &le; 0.419<br/>gini = 0.153<br/>samples = 24<br/>value = [2, 22]<br/>class = Óbito>, fillcolor="#4ba6e7"] ;
126 -> 128 ;
129 [label=<IDADE &le; 0.233<br/>gini = 0.245<br/>samples = 14<br/>value = [2, 12]<br/>class = Óbito>, fillcolor="#5aade9"] ;
128 -> 129 ;
130 [label=<gini = 0.0<br/>samples = 9<br/>value = [0, 9]<br/>class = Óbito>, fillcolor="#399de5"] ;
129 -> 130 ;
131 [label=<SE_IS &le; -0.579<br/>gini = 0.48<br/>samples = 5<br/>value = [2, 3]<br/>class = Óbito>, fillcolor="#bddef6"] ;
129 -> 131 ;
132 [label=<gini = 0.0<br/>samples = 2<br/>value = [0, 2]<br/>class = Óbito>, fillcolor="#399de5"] ;
131 -> 132 ;
133 [label=<SOBRE60 &le; -0.205<br/>gini = 0.444<br/>samples = 3<br/>value = [2, 1]<br/>class = Não Obito>, fillcolor="#f2c09c"] ;
131 -> 133 ;
134 [label=<IDADE &le; 0.357<br/>gini = 0.5<br/>samples = 2<br/>value = [1, 1]<br/>class = Não Obito>, fillcolor="#ffffff"] ;
133 -> 134 ;
135 [label=<gini = 0.0<br/>samples = 1<br/>value = [0, 1]<br/>class = Óbito>, fillcolor="#399de5"] ;
134 -> 135 ;
136 [label=<gini = 0.0<br/>samples = 1<br/>value = [1, 0]<br/>class = Não Obito>, fillcolor="#e58139"] ;
134 -> 136 ;
137 [label=<gini = 0.0<br/>samples = 1<br/>value = [1, 0]<br/>class = Não Obito>, fillcolor="#e58139"] ;
133 -> 137 ;
138 [label=<gini = 0.0<br/>samples = 10<br/>value = [0, 10]<br/>class = Óbito>, fillcolor="#399de5"] ;
128 -> 138 ;
139 [label=<COD_MUN_LPI &le; -0.124<br/>gini = 0.444<br/>samples = 3<br/>value = [1, 2]<br/>class = Óbito>, fillcolor="#9ccef2"] ;
125 -> 139 ;
140 [label=<gini = 0.0<br/>samples = 1<br/>value = [1, 0]<br/>class = Não Obito>, fillcolor="#e58139"] ;
139 -> 140 ;
141 [label=<gini = 0.0<br/>samples = 2<br/>value = [0, 2]<br/>class = Óbito>, fillcolor="#399de5"] ;
139 -> 141 ;
142 [label=<IDADE &le; -0.222<br/>gini = 0.451<br/>samples = 102<br/>value = [35, 67]<br/>class = Óbito>, fillcolor="#a0d0f3"] ;
118 -> 142 ;
143 [label=<MACACOS_NUM_CASOS &le; -0.396<br/>gini = 0.49<br/>samples = 28<br/>value = [16, 12]<br/>class = Não Obito>, fillcolor="#f8e0ce"] ;
142 -> 143 ;
144 [label=<gini = 0.0<br/>samples = 9<br/>value = [9, 0]<br/>class = Não Obito>, fillcolor="#e58139"] ;
143 -> 144 ;
145 [label=<IDADE &le; -0.888<br/>gini = 0.465<br/>samples = 19<br/>value = [7, 12]<br/>class = Óbito>, fillcolor="#acd6f4"] ;
143 -> 145 ;
146 [label=<gini = 0.0<br/>samples = 3<br/>value = [3, 0]<br/>class = Não Obito>, fillcolor="#e58139"] ;
145 -> 146 ;
147 [label=<SOBRE60 &le; 0.033<br/>gini = 0.375<br/>samples = 16<br/>value = [4, 12]<br/>class = Óbito>, fillcolor="#7bbeee"] ;
145 -> 147 ;
148 [label=<IDADE &le; -0.422<br/>gini = 0.32<br/>samples = 15<br/>value = [3, 12]<br/>class = Óbito>, fillcolor="#6ab6ec"] ;
147 -> 148 ;
149 [label=<SE_IS &le; -0.198<br/>gini = 0.245<br/>samples = 14<br/>value = [2, 12]<br/>class = Óbito>, fillcolor="#5aade9"] ;
148 -> 149 ;
150 [label=<gini = 0.0<br/>samples = 7<br/>value = [0, 7]<br/>class = Óbito>, fillcolor="#399de5"] ;
149 -> 150 ;
151 [label=<TAXA_MORTALIDADE &le; -0.597<br/>gini = 0.408<br/>samples = 7<br/>value = [2, 5]<br/>class = Óbito>, fillcolor="#88c4ef"] ;
149 -> 151 ;
152 [label=<gini = 0.0<br/>samples = 2<br/>value = [2, 0]<br/>class = Não Obito>, fillcolor="#e58139"] ;
151 -> 152 ;
153 [label=<gini = 0.0<br/>samples = 5<br/>value = [0, 5]<br/>class = Óbito>, fillcolor="#399de5"] ;
151 -> 153 ;
154 [label=<gini = 0.0<br/>samples = 1<br/>value = [1, 0]<br/>class = Não Obito>, fillcolor="#e58139"] ;
148 -> 154 ;
155 [label=<gini = 0.0<br/>samples = 1<br/>value = [1, 0]<br/>class = Não Obito>, fillcolor="#e58139"] ;
147 -> 155 ;
156 [label=<MACACOS_NUM_CASOS &le; -0.419<br/>gini = 0.382<br/>samples = 74<br/>value = [19, 55]<br/>class = Óbito>, fillcolor="#7dbfee"] ;
142 -> 156 ;
157 [label=<GRUPO_RISCO &le; -0.255<br/>gini = 0.268<br/>samples = 44<br/>value = [7, 37]<br/>class = Óbito>, fillcolor="#5eb0ea"] ;
156 -> 157 ;
158 [label=<TAXA_VACINACAO &le; 0.24<br/>gini = 0.473<br/>samples = 13<br/>value = [5, 8]<br/>class = Óbito>, fillcolor="#b5daf5"] ;
157 -> 158 ;
159 [label=<SOBRE60 &le; -1.279<br/>gini = 0.278<br/>samples = 6<br/>value = [5, 1]<br/>class = Não Obito>, fillcolor="#ea9a61"] ;
158 -> 159 ;
160 [label=<IDADE &le; 0.357<br/>gini = 0.5<br/>samples = 2<br/>value = [1, 1]<br/>class = Não Obito>, fillcolor="#ffffff"] ;
159 -> 160 ;
161 [label=<gini = 0.0<br/>samples = 1<br/>value = [1, 0]<br/>class = Não Obito>, fillcolor="#e58139"] ;
160 -> 161 ;
162 [label=<gini = 0.0<br/>samples = 1<br/>value = [0, 1]<br/>class = Óbito>, fillcolor="#399de5"] ;
160 -> 162 ;
163 [label=<gini = 0.0<br/>samples = 4<br/>value = [4, 0]<br/>class = Não Obito>, fillcolor="#e58139"] ;
159 -> 163 ;
164 [label=<gini = 0.0<br/>samples = 7<br/>value = [0, 7]<br/>class = Óbito>, fillcolor="#399de5"] ;
158 -> 164 ;
165 [label=<IDADE &le; -0.022<br/>gini = 0.121<br/>samples = 31<br/>value = [2, 29]<br/>class = Óbito>, fillcolor="#47a4e7"] ;
157 -> 165 ;
166 [label=<COD_MUN_LPI &le; -0.171<br/>gini = 0.5<br/>samples = 2<br/>value = [1, 1]<br/>class = Não Obito>, fillcolor="#ffffff"] ;
165 -> 166 ;
167 [label=<gini = 0.0<br/>samples = 1<br/>value = [1, 0]<br/>class = Não Obito>, fillcolor="#e58139"] ;
166 -> 167 ;
168 [label=<gini = 0.0<br/>samples = 1<br/>value = [0, 1]<br/>class = Óbito>, fillcolor="#399de5"] ;
166 -> 168 ;
169 [label=<SE_IS &le; -0.014<br/>gini = 0.067<br/>samples = 29<br/>value = [1, 28]<br/>class = Óbito>, fillcolor="#40a0e6"] ;
165 -> 169 ;
170 [label=<gini = 0.0<br/>samples = 26<br/>value = [0, 26]<br/>class = Óbito>, fillcolor="#399de5"] ;
169 -> 170 ;
171 [label=<IDADE &le; 0.669<br/>gini = 0.444<br/>samples = 3<br/>value = [1, 2]<br/>class = Óbito>, fillcolor="#9ccef2"] ;
169 -> 171 ;
172 [label=<gini = 0.0<br/>samples = 2<br/>value = [0, 2]<br/>class = Óbito>, fillcolor="#399de5"] ;
171 -> 172 ;
173 [label=<gini = 0.0<br/>samples = 1<br/>value = [1, 0]<br/>class = Não Obito>, fillcolor="#e58139"] ;
171 -> 173 ;
174 [label=<IDADE &le; 0.198<br/>gini = 0.48<br/>samples = 30<br/>value = [12, 18]<br/>class = Óbito>, fillcolor="#bddef6"] ;
156 -> 174 ;
175 [label=<SE_IS &le; -0.39<br/>gini = 0.18<br/>samples = 10<br/>value = [1, 9]<br/>class = Óbito>, fillcolor="#4fa8e8"] ;
174 -> 175 ;
176 [label=<gini = 0.0<br/>samples = 1<br/>value = [1, 0]<br/>class = Não Obito>, fillcolor="#e58139"] ;
175 -> 176 ;
177 [label=<gini = 0.0<br/>samples = 9<br/>value = [0, 9]<br/>class = Óbito>, fillcolor="#399de5"] ;
175 -> 177 ;
178 [label=<IDADE &le; 0.606<br/>gini = 0.495<br/>samples = 20<br/>value = [11, 9]<br/>class = Não Obito>, fillcolor="#fae8db"] ;
174 -> 178 ;
179 [label=<SE_IS &le; -0.029<br/>gini = 0.397<br/>samples = 11<br/>value = [8, 3]<br/>class = Não Obito>, fillcolor="#efb083"] ;
178 -> 179 ;
180 [label=<IDADE &le; 0.544<br/>gini = 0.219<br/>samples = 8<br/>value = [7, 1]<br/>class = Não Obito>, fillcolor="#e99355"] ;
179 -> 180 ;
181 [label=<gini = 0.0<br/>samples = 5<br/>value = [5, 0]<br/>class = Não Obito>, fillcolor="#e58139"] ;
180 -> 181 ;
182 [label=<SE_IS &le; -0.24<br/>gini = 0.444<br/>samples = 3<br/>value = [2, 1]<br/>class = Não Obito>, fillcolor="#f2c09c"] ;
180 -> 182 ;
183 [label=<gini = 0.0<br/>samples = 1<br/>value = [0, 1]<br/>class = Óbito>, fillcolor="#399de5"] ;
182 -> 183 ;
184 [label=<gini = 0.0<br/>samples = 2<br/>value = [2, 0]<br/>class = Não Obito>, fillcolor="#e58139"] ;
182 -> 184 ;
185 [label=<IDHM &le; -0.63<br/>gini = 0.444<br/>samples = 3<br/>value = [1, 2]<br/>class = Óbito>, fillcolor="#9ccef2"] ;
179 -> 185 ;
186 [label=<gini = 0.0<br/>samples = 1<br/>value = [1, 0]<br/>class = Não Obito>, fillcolor="#e58139"] ;
185 -> 186 ;
187 [label=<gini = 0.0<br/>samples = 2<br/>value = [0, 2]<br/>class = Óbito>, fillcolor="#399de5"] ;
185 -> 187 ;
188 [label=<GINI &le; -1.37<br/>gini = 0.444<br/>samples = 9<br/>value = [3, 6]<br/>class = Óbito>, fillcolor="#9ccef2"] ;
178 -> 188 ;
189 [label=<gini = 0.0<br/>samples = 1<br/>value = [1, 0]<br/>class = Não Obito>, fillcolor="#e58139"] ;
188 -> 189 ;
190 [label=<SE_IS &le; -0.019<br/>gini = 0.375<br/>samples = 8<br/>value = [2, 6]<br/>class = Óbito>, fillcolor="#7bbeee"] ;
188 -> 190 ;
191 [label=<TAXA_VACINACAO &le; 0.426<br/>gini = 0.245<br/>samples = 7<br/>value = [1, 6]<br/>class = Óbito>, fillcolor="#5aade9"] ;
190 -> 191 ;
192 [label=<gini = 0.0<br/>samples = 4<br/>value = [0, 4]<br/>class = Óbito>, fillcolor="#399de5"] ;
191 -> 192 ;
193 [label=<IDADE &le; 0.731<br/>gini = 0.444<br/>samples = 3<br/>value = [1, 2]<br/>class = Óbito>, fillcolor="#9ccef2"] ;
191 -> 193 ;
194 [label=<gini = 0.0<br/>samples = 1<br/>value = [0, 1]<br/>class = Óbito>, fillcolor="#399de5"] ;
193 -> 194 ;
195 [label=<IDADE &le; 0.886<br/>gini = 0.5<br/>samples = 2<br/>value = [1, 1]<br/>class = Não Obito>, fillcolor="#ffffff"] ;
193 -> 195 ;
196 [label=<gini = 0.0<br/>samples = 1<br/>value = [1, 0]<br/>class = Não Obito>, fillcolor="#e58139"] ;
195 -> 196 ;
197 [label=<gini = 0.0<br/>samples = 1<br/>value = [0, 1]<br/>class = Óbito>, fillcolor="#399de5"] ;
195 -> 197 ;
198 [label=<gini = 0.0<br/>samples = 1<br/>value = [1, 0]<br/>class = Não Obito>, fillcolor="#e58139"] ;
190 -> 198 ;
199 [label=<MACACOS_NUM_CASOS &le; -0.487<br/>gini = 0.5<br/>samples = 253<br/>value = [123, 130]<br/>class = Óbito>, fillcolor="#f4fafe"] ;
83 -> 199 ;
200 [label=<TAXA_VACINACAO &le; 0.64<br/>gini = 0.375<br/>samples = 48<br/>value = [36, 12]<br/>class = Não Obito>, fillcolor="#eeab7b"] ;
199 -> 200 ;
201 [label=<SE_IS &le; -0.22<br/>gini = 0.231<br/>samples = 30<br/>value = [26, 4]<br/>class = Não Obito>, fillcolor="#e99457"] ;
200 -> 201 ;
202 [label=<SOBRE60 &le; -0.29<br/>gini = 0.375<br/>samples = 16<br/>value = [12, 4]<br/>class = Não Obito>, fillcolor="#eeab7b"] ;
201 -> 202 ;
203 [label=<IDHM &le; 0.248<br/>gini = 0.375<br/>samples = 4<br/>value = [1, 3]<br/>class = Óbito>, fillcolor="#7bbeee"] ;
202 -> 203 ;
204 [label=<gini = 0.0<br/>samples = 3<br/>value = [0, 3]<br/>class = Óbito>, fillcolor="#399de5"] ;
203 -> 204 ;
205 [label=<gini = 0.0<br/>samples = 1<br/>value = [1, 0]<br/>class = Não Obito>, fillcolor="#e58139"] ;
203 -> 205 ;
206 [label=<ANO_IS &le; 1.162<br/>gini = 0.153<br/>samples = 12<br/>value = [11, 1]<br/>class = Não Obito>, fillcolor="#e78c4b"] ;
202 -> 206 ;
207 [label=<gini = 0.0<br/>samples = 11<br/>value = [11, 0]<br/>class = Não Obito>, fillcolor="#e58139"] ;
206 -> 207 ;
208 [label=<gini = 0.0<br/>samples = 1<br/>value = [0, 1]<br/>class = Óbito>, fillcolor="#399de5"] ;
206 -> 208 ;
209 [label=<gini = 0.0<br/>samples = 14<br/>value = [14, 0]<br/>class = Não Obito>, fillcolor="#e58139"] ;
201 -> 209 ;
210 [label=<SE_IS &le; -0.621<br/>gini = 0.494<br/>samples = 18<br/>value = [10, 8]<br/>class = Não Obito>, fillcolor="#fae6d7"] ;
200 -> 210 ;
211 [label=<gini = 0.0<br/>samples = 2<br/>value = [2, 0]<br/>class = Não Obito>, fillcolor="#e58139"] ;
210 -> 211 ;
212 [label=<GINI &le; -0.5<br/>gini = 0.5<br/>samples = 16<br/>value = [8, 8]<br/>class = Não Obito>, fillcolor="#ffffff"] ;
210 -> 212 ;
213 [label=<SE_IS &le; -0.367<br/>gini = 0.498<br/>samples = 15<br/>value = [8, 7]<br/>class = Não Obito>, fillcolor="#fcefe6"] ;
212 -> 213 ;
214 [label=<IDADE &le; -0.172<br/>gini = 0.444<br/>samples = 6<br/>value = [2, 4]<br/>class = Óbito>, fillcolor="#9ccef2"] ;
213 -> 214 ;
215 [label=<COBERTURA_VEGETAL_NATURAL &le; -0.059<br/>gini = 0.444<br/>samples = 3<br/>value = [2, 1]<br/>class = Não Obito>, fillcolor="#f2c09c"] ;
214 -> 215 ;
216 [label=<gini = 0.0<br/>samples = 2<br/>value = [2, 0]<br/>class = Não Obito>, fillcolor="#e58139"] ;
215 -> 216 ;
217 [label=<gini = 0.0<br/>samples = 1<br/>value = [0, 1]<br/>class = Óbito>, fillcolor="#399de5"] ;
215 -> 217 ;
218 [label=<gini = 0.0<br/>samples = 3<br/>value = [0, 3]<br/>class = Óbito>, fillcolor="#399de5"] ;
214 -> 218 ;
219 [label=<SE_IS &le; -0.24<br/>gini = 0.444<br/>samples = 9<br/>value = [6, 3]<br/>class = Não Obito>, fillcolor="#f2c09c"] ;
213 -> 219 ;
220 [label=<gini = 0.0<br/>samples = 4<br/>value = [4, 0]<br/>class = Não Obito>, fillcolor="#e58139"] ;
219 -> 220 ;
221 [label=<CLASSIFIC_INST_SANITARIAS &le; 1.395<br/>gini = 0.48<br/>samples = 5<br/>value = [2, 3]<br/>class = Óbito>, fillcolor="#bddef6"] ;
219 -> 221 ;
222 [label=<IDADE &le; 0.171<br/>gini = 0.444<br/>samples = 3<br/>value = [2, 1]<br/>class = Não Obito>, fillcolor="#f2c09c"] ;
221 -> 222 ;
223 [label=<gini = 0.0<br/>samples = 1<br/>value = [0, 1]<br/>class = Óbito>, fillcolor="#399de5"] ;
222 -> 223 ;
224 [label=<gini = 0.0<br/>samples = 2<br/>value = [2, 0]<br/>class = Não Obito>, fillcolor="#e58139"] ;
222 -> 224 ;
225 [label=<gini = 0.0<br/>samples = 2<br/>value = [0, 2]<br/>class = Óbito>, fillcolor="#399de5"] ;
221 -> 225 ;
226 [label=<gini = 0.0<br/>samples = 1<br/>value = [0, 1]<br/>class = Óbito>, fillcolor="#399de5"] ;
212 -> 226 ;
227 [label=<IDADE &le; -0.393<br/>gini = 0.489<br/>samples = 205<br/>value = [87, 118]<br/>class = Óbito>, fillcolor="#cbe5f8"] ;
199 -> 227 ;
228 [label=<SE_IS &le; -0.431<br/>gini = 0.468<br/>samples = 51<br/>value = [32, 19]<br/>class = Não Obito>, fillcolor="#f4ccaf"] ;
227 -> 228 ;
229 [label=<IDADE &le; -0.576<br/>gini = 0.486<br/>samples = 24<br/>value = [10, 14]<br/>class = Óbito>, fillcolor="#c6e3f8"] ;
228 -> 229 ;
230 [label=<GINI &le; -0.413<br/>gini = 0.375<br/>samples = 16<br/>value = [4, 12]<br/>class = Óbito>, fillcolor="#7bbeee"] ;
229 -> 230 ;
231 [label=<gini = 0.0<br/>samples = 2<br/>value = [2, 0]<br/>class = Não Obito>, fillcolor="#e58139"] ;
230 -> 231 ;
232 [label=<SE_IS &le; -0.56<br/>gini = 0.245<br/>samples = 14<br/>value = [2, 12]<br/>class = Óbito>, fillcolor="#5aade9"] ;
230 -> 232 ;
233 [label=<IDADE &le; -0.919<br/>gini = 0.48<br/>samples = 5<br/>value = [2, 3]<br/>class = Óbito>, fillcolor="#bddef6"] ;
232 -> 233 ;
234 [label=<gini = 0.0<br/>samples = 2<br/>value = [2, 0]<br/>class = Não Obito>, fillcolor="#e58139"] ;
233 -> 234 ;
235 [label=<gini = 0.0<br/>samples = 3<br/>value = [0, 3]<br/>class = Óbito>, fillcolor="#399de5"] ;
233 -> 235 ;
236 [label=<gini = 0.0<br/>samples = 9<br/>value = [0, 9]<br/>class = Óbito>, fillcolor="#399de5"] ;
232 -> 236 ;
237 [label=<COBERTURA_VEGETAL_NATURAL &le; -0.095<br/>gini = 0.375<br/>samples = 8<br/>value = [6, 2]<br/>class = Não Obito>, fillcolor="#eeab7b"] ;
229 -> 237 ;
238 [label=<gini = 0.0<br/>samples = 6<br/>value = [6, 0]<br/>class = Não Obito>, fillcolor="#e58139"] ;
237 -> 238 ;
239 [label=<gini = 0.0<br/>samples = 2<br/>value = [0, 2]<br/>class = Óbito>, fillcolor="#399de5"] ;
237 -> 239 ;
240 [label=<CLASSIFIC_INST_SANITARIAS &le; -1.022<br/>gini = 0.302<br/>samples = 27<br/>value = [22, 5]<br/>class = Não Obito>, fillcolor="#eb9e66"] ;
228 -> 240 ;
241 [label=<gini = 0.0<br/>samples = 3<br/>value = [0, 3]<br/>class = Óbito>, fillcolor="#399de5"] ;
240 -> 241 ;
242 [label=<IDADE &le; -0.452<br/>gini = 0.153<br/>samples = 24<br/>value = [22, 2]<br/>class = Não Obito>, fillcolor="#e78c4b"] ;
240 -> 242 ;
243 [label=<gini = 0.0<br/>samples = 19<br/>value = [19, 0]<br/>class = Não Obito>, fillcolor="#e58139"] ;
242 -> 243 ;
244 [label=<SOBRE60 &le; 0.137<br/>gini = 0.48<br/>samples = 5<br/>value = [3, 2]<br/>class = Não Obito>, fillcolor="#f6d5bd"] ;
242 -> 244 ;
245 [label=<gini = 0.0<br/>samples = 2<br/>value = [2, 0]<br/>class = Não Obito>, fillcolor="#e58139"] ;
244 -> 245 ;
246 [label=<COBERTURA_VEGETAL_NATURAL &le; -0.896<br/>gini = 0.444<br/>samples = 3<br/>value = [1, 2]<br/>class = Óbito>, fillcolor="#9ccef2"] ;
244 -> 246 ;
247 [label=<SE_IS &le; -0.282<br/>gini = 0.5<br/>samples = 2<br/>value = [1, 1]<br/>class = Não Obito>, fillcolor="#ffffff"] ;
246 -> 247 ;
248 [label=<gini = 0.0<br/>samples = 1<br/>value = [0, 1]<br/>class = Óbito>, fillcolor="#399de5"] ;
247 -> 248 ;
249 [label=<gini = 0.0<br/>samples = 1<br/>value = [1, 0]<br/>class = Não Obito>, fillcolor="#e58139"] ;
247 -> 249 ;
250 [label=<gini = 0.0<br/>samples = 1<br/>value = [0, 1]<br/>class = Óbito>, fillcolor="#399de5"] ;
246 -> 250 ;
251 [label=<IDADE &le; 0.322<br/>gini = 0.459<br/>samples = 154<br/>value = [55, 99]<br/>class = Óbito>, fillcolor="#a7d3f3"] ;
227 -> 251 ;
252 [label=<TAXA_MORTALIDADE &le; -0.525<br/>gini = 0.372<br/>samples = 93<br/>value = [23, 70]<br/>class = Óbito>, fillcolor="#7abdee"] ;
251 -> 252 ;
253 [label=<CLASSIFIC_INST_SANITARIAS &le; 1.555<br/>gini = 0.328<br/>samples = 87<br/>value = [18, 69]<br/>class = Óbito>, fillcolor="#6db7ec"] ;
252 -> 253 ;
254 [label=<TAXA_VACINACAO &le; -0.526<br/>gini = 0.25<br/>samples = 75<br/>value = [11, 64]<br/>class = Óbito>, fillcolor="#5baee9"] ;
253 -> 254 ;
255 [label=<SE_IS &le; -0.113<br/>gini = 0.473<br/>samples = 13<br/>value = [5, 8]<br/>class = Óbito>, fillcolor="#b5daf5"] ;
254 -> 255 ;
256 [label=<SE_IS &le; -0.536<br/>gini = 0.469<br/>samples = 8<br/>value = [5, 3]<br/>class = Não Obito>, fillcolor="#f5cdb0"] ;
255 -> 256 ;
257 [label=<SOBRE60 &le; 0.464<br/>gini = 0.375<br/>samples = 4<br/>value = [1, 3]<br/>class = Óbito>, fillcolor="#7bbeee"] ;
256 -> 257 ;
258 [label=<gini = 0.0<br/>samples = 3<br/>value = [0, 3]<br/>class = Óbito>, fillcolor="#399de5"] ;
257 -> 258 ;
259 [label=<gini = 0.0<br/>samples = 1<br/>value = [1, 0]<br/>class = Não Obito>, fillcolor="#e58139"] ;
257 -> 259 ;
260 [label=<gini = 0.0<br/>samples = 4<br/>value = [4, 0]<br/>class = Não Obito>, fillcolor="#e58139"] ;
256 -> 260 ;
261 [label=<gini = 0.0<br/>samples = 5<br/>value = [0, 5]<br/>class = Óbito>, fillcolor="#399de5"] ;
255 -> 261 ;
262 [label=<SOBRE60 &le; -0.45<br/>gini = 0.175<br/>samples = 62<br/>value = [6, 56]<br/>class = Óbito>, fillcolor="#4ea8e8"] ;
254 -> 262 ;
263 [label=<SE_IS &le; -0.451<br/>gini = 0.415<br/>samples = 17<br/>value = [5, 12]<br/>class = Óbito>, fillcolor="#8bc6f0"] ;
262 -> 263 ;
264 [label=<gini = 0.0<br/>samples = 2<br/>value = [2, 0]<br/>class = Não Obito>, fillcolor="#e58139"] ;
263 -> 264 ;
265 [label=<IDADE &le; -0.016<br/>gini = 0.32<br/>samples = 15<br/>value = [3, 12]<br/>class = Óbito>, fillcolor="#6ab6ec"] ;
263 -> 265 ;
266 [label=<IDADE &le; -0.114<br/>gini = 0.444<br/>samples = 3<br/>value = [2, 1]<br/>class = Não Obito>, fillcolor="#f2c09c"] ;
265 -> 266 ;
267 [label=<gini = 0.0<br/>samples = 1<br/>value = [0, 1]<br/>class = Óbito>, fillcolor="#399de5"] ;
266 -> 267 ;
268 [label=<gini = 0.0<br/>samples = 2<br/>value = [2, 0]<br/>class = Não Obito>, fillcolor="#e58139"] ;
266 -> 268 ;
269 [label=<IDADE &le; 0.171<br/>gini = 0.153<br/>samples = 12<br/>value = [1, 11]<br/>class = Óbito>, fillcolor="#4ba6e7"] ;
265 -> 269 ;
270 [label=<IDADE &le; 0.108<br/>gini = 0.32<br/>samples = 5<br/>value = [1, 4]<br/>class = Óbito>, fillcolor="#6ab6ec"] ;
269 -> 270 ;
271 [label=<gini = 0.0<br/>samples = 4<br/>value = [0, 4]<br/>class = Óbito>, fillcolor="#399de5"] ;
270 -> 271 ;
272 [label=<gini = 0.0<br/>samples = 1<br/>value = [1, 0]<br/>class = Não Obito>, fillcolor="#e58139"] ;
270 -> 272 ;
273 [label=<gini = 0.0<br/>samples = 7<br/>value = [0, 7]<br/>class = Óbito>, fillcolor="#399de5"] ;
269 -> 273 ;
274 [label=<IDADE &le; 0.234<br/>gini = 0.043<br/>samples = 45<br/>value = [1, 44]<br/>class = Óbito>, fillcolor="#3d9fe6"] ;
262 -> 274 ;
275 [label=<gini = 0.0<br/>samples = 38<br/>value = [0, 38]<br/>class = Óbito>, fillcolor="#399de5"] ;
274 -> 275 ;
276 [label=<TAXA_MORTALIDADE &le; -0.668<br/>gini = 0.245<br/>samples = 7<br/>value = [1, 6]<br/>class = Óbito>, fillcolor="#5aade9"] ;
274 -> 276 ;
277 [label=<gini = 0.0<br/>samples = 5<br/>value = [0, 5]<br/>class = Óbito>, fillcolor="#399de5"] ;
276 -> 277 ;
278 [label=<IDADE &le; 0.28<br/>gini = 0.5<br/>samples = 2<br/>value = [1, 1]<br/>class = Não Obito>, fillcolor="#ffffff"] ;
276 -> 278 ;
279 [label=<gini = 0.0<br/>samples = 1<br/>value = [1, 0]<br/>class = Não Obito>, fillcolor="#e58139"] ;
278 -> 279 ;
280 [label=<gini = 0.0<br/>samples = 1<br/>value = [0, 1]<br/>class = Óbito>, fillcolor="#399de5"] ;
278 -> 280 ;
281 [label=<SE_IS &le; -0.45<br/>gini = 0.486<br/>samples = 12<br/>value = [7, 5]<br/>class = Não Obito>, fillcolor="#f8dbc6"] ;
253 -> 281 ;
282 [label=<gini = 0.0<br/>samples = 4<br/>value = [0, 4]<br/>class = Óbito>, fillcolor="#399de5"] ;
281 -> 282 ;
283 [label=<IDADE &le; 0.046<br/>gini = 0.219<br/>samples = 8<br/>value = [7, 1]<br/>class = Não Obito>, fillcolor="#e99355"] ;
281 -> 283 ;
284 [label=<gini = 0.0<br/>samples = 6<br/>value = [6, 0]<br/>class = Não Obito>, fillcolor="#e58139"] ;
283 -> 284 ;
285 [label=<SE_IS &le; -0.198<br/>gini = 0.5<br/>samples = 2<br/>value = [1, 1]<br/>class = Não Obito>, fillcolor="#ffffff"] ;
283 -> 285 ;
286 [label=<gini = 0.0<br/>samples = 1<br/>value = [0, 1]<br/>class = Óbito>, fillcolor="#399de5"] ;
285 -> 286 ;
287 [label=<gini = 0.0<br/>samples = 1<br/>value = [1, 0]<br/>class = Não Obito>, fillcolor="#e58139"] ;
285 -> 287 ;
288 [label=<SE_IS &le; -0.451<br/>gini = 0.278<br/>samples = 6<br/>value = [5, 1]<br/>class = Não Obito>, fillcolor="#ea9a61"] ;
252 -> 288 ;
289 [label=<IDADE &le; -0.078<br/>gini = 0.444<br/>samples = 3<br/>value = [2, 1]<br/>class = Não Obito>, fillcolor="#f2c09c"] ;
288 -> 289 ;
290 [label=<gini = 0.0<br/>samples = 1<br/>value = [1, 0]<br/>class = Não Obito>, fillcolor="#e58139"] ;
289 -> 290 ;
291 [label=<IDADE &le; 0.108<br/>gini = 0.5<br/>samples = 2<br/>value = [1, 1]<br/>class = Não Obito>, fillcolor="#ffffff"] ;
289 -> 291 ;
292 [label=<gini = 0.0<br/>samples = 1<br/>value = [0, 1]<br/>class = Óbito>, fillcolor="#399de5"] ;
291 -> 292 ;
293 [label=<gini = 0.0<br/>samples = 1<br/>value = [1, 0]<br/>class = Não Obito>, fillcolor="#e58139"] ;
291 -> 293 ;
294 [label=<gini = 0.0<br/>samples = 3<br/>value = [3, 0]<br/>class = Não Obito>, fillcolor="#e58139"] ;
288 -> 294 ;
295 [label=<GINI &le; -0.868<br/>gini = 0.499<br/>samples = 61<br/>value = [32, 29]<br/>class = Não Obito>, fillcolor="#fdf3ec"] ;
251 -> 295 ;
296 [label=<CLASSIFIC_INST_SANITARIAS &le; -0.971<br/>gini = 0.18<br/>samples = 10<br/>value = [9, 1]<br/>class = Não Obito>, fillcolor="#e88f4f"] ;
295 -> 296 ;
297 [label=<gini = 0.0<br/>samples = 1<br/>value = [0, 1]<br/>class = Óbito>, fillcolor="#399de5"] ;
296 -> 297 ;
298 [label=<gini = 0.0<br/>samples = 9<br/>value = [9, 0]<br/>class = Não Obito>, fillcolor="#e58139"] ;
296 -> 298 ;
299 [label=<IDADE &le; 0.461<br/>gini = 0.495<br/>samples = 51<br/>value = [23, 28]<br/>class = Óbito>, fillcolor="#dceefa"] ;
295 -> 299 ;
300 [label=<SE_IS &le; -0.198<br/>gini = 0.43<br/>samples = 16<br/>value = [11, 5]<br/>class = Não Obito>, fillcolor="#f1ba93"] ;
299 -> 300 ;
301 [label=<MACACOS_NUM_CASOS &le; -0.462<br/>gini = 0.153<br/>samples = 12<br/>value = [11, 1]<br/>class = Não Obito>, fillcolor="#e78c4b"] ;
300 -> 301 ;
302 [label=<gini = 0.0<br/>samples = 1<br/>value = [0, 1]<br/>class = Óbito>, fillcolor="#399de5"] ;
301 -> 302 ;
303 [label=<gini = 0.0<br/>samples = 11<br/>value = [11, 0]<br/>class = Não Obito>, fillcolor="#e58139"] ;
301 -> 303 ;
304 [label=<gini = 0.0<br/>samples = 4<br/>value = [0, 4]<br/>class = Óbito>, fillcolor="#399de5"] ;
300 -> 304 ;
305 [label=<IDADE &le; 0.628<br/>gini = 0.451<br/>samples = 35<br/>value = [12, 23]<br/>class = Óbito>, fillcolor="#a0d0f3"] ;
299 -> 305 ;
306 [label=<gini = 0.0<br/>samples = 9<br/>value = [0, 9]<br/>class = Óbito>, fillcolor="#399de5"] ;
305 -> 306 ;
307 [label=<SE_IS &le; -0.451<br/>gini = 0.497<br/>samples = 26<br/>value = [12, 14]<br/>class = Óbito>, fillcolor="#e3f1fb"] ;
305 -> 307 ;
308 [label=<COBERTURA_VEGETAL_NATURAL &le; 0.446<br/>gini = 0.278<br/>samples = 12<br/>value = [2, 10]<br/>class = Óbito>, fillcolor="#61b1ea"] ;
307 -> 308 ;
309 [label=<gini = 0.0<br/>samples = 6<br/>value = [0, 6]<br/>class = Óbito>, fillcolor="#399de5"] ;
308 -> 309 ;
310 [label=<SE_IS &le; -0.599<br/>gini = 0.444<br/>samples = 6<br/>value = [2, 4]<br/>class = Óbito>, fillcolor="#9ccef2"] ;
308 -> 310 ;
311 [label=<gini = 0.0<br/>samples = 3<br/>value = [0, 3]<br/>class = Óbito>, fillcolor="#399de5"] ;
310 -> 311 ;
312 [label=<IDADE &le; 0.855<br/>gini = 0.444<br/>samples = 3<br/>value = [2, 1]<br/>class = Não Obito>, fillcolor="#f2c09c"] ;
310 -> 312 ;
313 [label=<gini = 0.0<br/>samples = 2<br/>value = [2, 0]<br/>class = Não Obito>, fillcolor="#e58139"] ;
312 -> 313 ;
314 [label=<gini = 0.0<br/>samples = 1<br/>value = [0, 1]<br/>class = Óbito>, fillcolor="#399de5"] ;
312 -> 314 ;
315 [label=<CLASSIFIC_INST_SANITARIAS &le; 1.537<br/>gini = 0.408<br/>samples = 14<br/>value = [10, 4]<br/>class = Não Obito>, fillcolor="#efb388"] ;
307 -> 315 ;
316 [label=<gini = 0.0<br/>samples = 5<br/>value = [5, 0]<br/>class = Não Obito>, fillcolor="#e58139"] ;
315 -> 316 ;
317 [label=<IDADE &le; 0.731<br/>gini = 0.494<br/>samples = 9<br/>value = [5, 4]<br/>class = Não Obito>, fillcolor="#fae6d7"] ;
315 -> 317 ;
318 [label=<gini = 0.0<br/>samples = 3<br/>value = [3, 0]<br/>class = Não Obito>, fillcolor="#e58139"] ;
317 -> 318 ;
319 [label=<SE_IS &le; -0.282<br/>gini = 0.444<br/>samples = 6<br/>value = [2, 4]<br/>class = Óbito>, fillcolor="#9ccef2"] ;
317 -> 319 ;
320 [label=<gini = 0.0<br/>samples = 2<br/>value = [2, 0]<br/>class = Não Obito>, fillcolor="#e58139"] ;
319 -> 320 ;
321 [label=<gini = 0.0<br/>samples = 4<br/>value = [0, 4]<br/>class = Óbito>, fillcolor="#399de5"] ;
319 -> 321 ;
322 [label=<IDADE &le; -0.983<br/>gini = 0.49<br/>samples = 236<br/>value = [135, 101]<br/>class = Não Obito>, fillcolor="#f8dfcd"] ;
82 -> 322 ;
323 [label=<TAXA_MORTALIDADE &le; 0.737<br/>gini = 0.255<br/>samples = 20<br/>value = [3, 17]<br/>class = Óbito>, fillcolor="#5caeea"] ;
322 -> 323 ;
324 [label=<gini = 0.0<br/>samples = 1<br/>value = [1, 0]<br/>class = Não Obito>, fillcolor="#e58139"] ;
323 -> 324 ;
325 [label=<SE_IS &le; -0.514<br/>gini = 0.188<br/>samples = 19<br/>value = [2, 17]<br/>class = Óbito>, fillcolor="#50a9e8"] ;
323 -> 325 ;
326 [label=<gini = 0.0<br/>samples = 12<br/>value = [0, 12]<br/>class = Óbito>, fillcolor="#399de5"] ;
325 -> 326 ;
327 [label=<SE_IS &le; -0.409<br/>gini = 0.408<br/>samples = 7<br/>value = [2, 5]<br/>class = Óbito>, fillcolor="#88c4ef"] ;
325 -> 327 ;
328 [label=<gini = 0.0<br/>samples = 2<br/>value = [2, 0]<br/>class = Não Obito>, fillcolor="#e58139"] ;
327 -> 328 ;
329 [label=<gini = 0.0<br/>samples = 5<br/>value = [0, 5]<br/>class = Óbito>, fillcolor="#399de5"] ;
327 -> 329 ;
330 [label=<IDADE &le; 0.98<br/>gini = 0.475<br/>samples = 216<br/>value = [132, 84]<br/>class = Não Obito>, fillcolor="#f6d1b7"] ;
322 -> 330 ;
331 [label=<SE_IS &le; -0.58<br/>gini = 0.486<br/>samples = 202<br/>value = [118, 84]<br/>class = Não Obito>, fillcolor="#f8dbc6"] ;
330 -> 331 ;
332 [label=<IDADE &le; -0.16<br/>gini = 0.486<br/>samples = 60<br/>value = [25, 35]<br/>class = Óbito>, fillcolor="#c6e3f8"] ;
331 -> 332 ;
333 [label=<IDADE &le; -0.716<br/>gini = 0.42<br/>samples = 20<br/>value = [14, 6]<br/>class = Não Obito>, fillcolor="#f0b78e"] ;
332 -> 333 ;
334 [label=<TAXA_MORTALIDADE &le; 1.18<br/>gini = 0.245<br/>samples = 7<br/>value = [1, 6]<br/>class = Óbito>, fillcolor="#5aade9"] ;
333 -> 334 ;
335 [label=<gini = 0.0<br/>samples = 1<br/>value = [1, 0]<br/>class = Não Obito>, fillcolor="#e58139"] ;
334 -> 335 ;
336 [label=<gini = 0.0<br/>samples = 6<br/>value = [0, 6]<br/>class = Óbito>, fillcolor="#399de5"] ;
334 -> 336 ;
337 [label=<gini = 0.0<br/>samples = 13<br/>value = [13, 0]<br/>class = Não Obito>, fillcolor="#e58139"] ;
333 -> 337 ;
338 [label=<IDADE &le; 0.726<br/>gini = 0.399<br/>samples = 40<br/>value = [11, 29]<br/>class = Óbito>, fillcolor="#84c2ef"] ;
332 -> 338 ;
339 [label=<GINI &le; -1.193<br/>gini = 0.313<br/>samples = 36<br/>value = [7, 29]<br/>class = Óbito>, fillcolor="#69b5eb"] ;
338 -> 339 ;
340 [label=<gini = 0.0<br/>samples = 2<br/>value = [2, 0]<br/>class = Não Obito>, fillcolor="#e58139"] ;
339 -> 340 ;
341 [label=<SE_IS &le; -0.658<br/>gini = 0.251<br/>samples = 34<br/>value = [5, 29]<br/>class = Óbito>, fillcolor="#5baee9"] ;
339 -> 341 ;
342 [label=<IDADE &le; 0.606<br/>gini = 0.311<br/>samples = 26<br/>value = [5, 21]<br/>class = Óbito>, fillcolor="#68b4eb"] ;
341 -> 342 ;
343 [label=<MACACOS_NUM_CASOS &le; 1.285<br/>gini = 0.278<br/>samples = 24<br/>value = [4, 20]<br/>class = Óbito>, fillcolor="#61b1ea"] ;
342 -> 343 ;
344 [label=<ANO_IS &le; -0.419<br/>gini = 0.198<br/>samples = 18<br/>value = [2, 16]<br/>class = Óbito>, fillcolor="#52a9e8"] ;
343 -> 344 ;
345 [label=<IDADE &le; 0.012<br/>gini = 0.32<br/>samples = 10<br/>value = [2, 8]<br/>class = Óbito>, fillcolor="#6ab6ec"] ;
344 -> 345 ;
346 [label=<gini = 0.0<br/>samples = 2<br/>value = [0, 2]<br/>class = Óbito>, fillcolor="#399de5"] ;
345 -> 346 ;
347 [label=<IDADE &le; 0.393<br/>gini = 0.375<br/>samples = 8<br/>value = [2, 6]<br/>class = Óbito>, fillcolor="#7bbeee"] ;
345 -> 347 ;
348 [label=<IDADE &le; 0.303<br/>gini = 0.444<br/>samples = 6<br/>value = [2, 4]<br/>class = Óbito>, fillcolor="#9ccef2"] ;
347 -> 348 ;
349 [label=<IDADE &le; 0.089<br/>gini = 0.32<br/>samples = 5<br/>value = [1, 4]<br/>class = Óbito>, fillcolor="#6ab6ec"] ;
348 -> 349 ;
350 [label=<gini = 0.5<br/>samples = 2<br/>value = [1, 1]<br/>class = Não Obito>, fillcolor="#ffffff"] ;
349 -> 350 ;
351 [label=<gini = 0.0<br/>samples = 3<br/>value = [0, 3]<br/>class = Óbito>, fillcolor="#399de5"] ;
349 -> 351 ;
352 [label=<gini = 0.0<br/>samples = 1<br/>value = [1, 0]<br/>class = Não Obito>, fillcolor="#e58139"] ;
348 -> 352 ;
353 [label=<gini = 0.0<br/>samples = 2<br/>value = [0, 2]<br/>class = Óbito>, fillcolor="#399de5"] ;
347 -> 353 ;
354 [label=<gini = 0.0<br/>samples = 8<br/>value = [0, 8]<br/>class = Óbito>, fillcolor="#399de5"] ;
344 -> 354 ;
355 [label=<IDADE &le; 0.015<br/>gini = 0.444<br/>samples = 6<br/>value = [2, 4]<br/>class = Óbito>, fillcolor="#9ccef2"] ;
343 -> 355 ;
356 [label=<gini = 0.0<br/>samples = 1<br/>value = [1, 0]<br/>class = Não Obito>, fillcolor="#e58139"] ;
355 -> 356 ;
357 [label=<IDADE &le; 0.451<br/>gini = 0.32<br/>samples = 5<br/>value = [1, 4]<br/>class = Óbito>, fillcolor="#6ab6ec"] ;
355 -> 357 ;
358 [label=<gini = 0.0<br/>samples = 3<br/>value = [0, 3]<br/>class = Óbito>, fillcolor="#399de5"] ;
357 -> 358 ;
359 [label=<gini = 0.5<br/>samples = 2<br/>value = [1, 1]<br/>class = Não Obito>, fillcolor="#ffffff"] ;
357 -> 359 ;
360 [label=<COBERTURA_VEGETAL_NATURAL &le; 0.844<br/>gini = 0.5<br/>samples = 2<br/>value = [1, 1]<br/>class = Não Obito>, fillcolor="#ffffff"] ;
342 -> 360 ;
361 [label=<gini = 0.0<br/>samples = 1<br/>value = [1, 0]<br/>class = Não Obito>, fillcolor="#e58139"] ;
360 -> 361 ;
362 [label=<gini = 0.0<br/>samples = 1<br/>value = [0, 1]<br/>class = Óbito>, fillcolor="#399de5"] ;
360 -> 362 ;
363 [label=<gini = 0.0<br/>samples = 8<br/>value = [0, 8]<br/>class = Óbito>, fillcolor="#399de5"] ;
341 -> 363 ;
364 [label=<gini = 0.0<br/>samples = 4<br/>value = [4, 0]<br/>class = Não Obito>, fillcolor="#e58139"] ;
338 -> 364 ;
365 [label=<IDADE &le; 0.764<br/>gini = 0.452<br/>samples = 142<br/>value = [93, 49]<br/>class = Não Obito>, fillcolor="#f3c3a1"] ;
331 -> 365 ;
366 [label=<GINI &le; -0.943<br/>gini = 0.415<br/>samples = 126<br/>value = [89, 37]<br/>class = Não Obito>, fillcolor="#f0b58b"] ;
365 -> 366 ;
367 [label=<MACACOS_NUM_CASOS &le; -0.487<br/>gini = 0.5<br/>samples = 32<br/>value = [16, 16]<br/>class = Não Obito>, fillcolor="#ffffff"] ;
366 -> 367 ;
368 [label=<SE_IS &le; -0.367<br/>gini = 0.355<br/>samples = 13<br/>value = [10, 3]<br/>class = Não Obito>, fillcolor="#eda774"] ;
367 -> 368 ;
369 [label=<gini = 0.0<br/>samples = 5<br/>value = [5, 0]<br/>class = Não Obito>, fillcolor="#e58139"] ;
368 -> 369 ;
370 [label=<IDADE &le; -0.39<br/>gini = 0.469<br/>samples = 8<br/>value = [5, 3]<br/>class = Não Obito>, fillcolor="#f5cdb0"] ;
368 -> 370 ;
371 [label=<gini = 0.0<br/>samples = 1<br/>value = [0, 1]<br/>class = Óbito>, fillcolor="#399de5"] ;
370 -> 371 ;
372 [label=<IDADE &le; 0.295<br/>gini = 0.408<br/>samples = 7<br/>value = [5, 2]<br/>class = Não Obito>, fillcolor="#efb388"] ;
370 -> 372 ;
373 [label=<gini = 0.0<br/>samples = 3<br/>value = [3, 0]<br/>class = Não Obito>, fillcolor="#e58139"] ;
372 -> 373 ;
374 [label=<GRUPO_RISCO &le; -0.254<br/>gini = 0.5<br/>samples = 4<br/>value = [2, 2]<br/>class = Não Obito>, fillcolor="#ffffff"] ;
372 -> 374 ;
375 [label=<gini = 0.0<br/>samples = 2<br/>value = [2, 0]<br/>class = Não Obito>, fillcolor="#e58139"] ;
374 -> 375 ;
376 [label=<gini = 0.0<br/>samples = 2<br/>value = [0, 2]<br/>class = Óbito>, fillcolor="#399de5"] ;
374 -> 376 ;
377 [label=<MACACOS_NUM_CASOS &le; -0.376<br/>gini = 0.432<br/>samples = 19<br/>value = [6, 13]<br/>class = Óbito>, fillcolor="#94caf1"] ;
367 -> 377 ;
378 [label=<gini = 0.0<br/>samples = 10<br/>value = [0, 10]<br/>class = Óbito>, fillcolor="#399de5"] ;
377 -> 378 ;
379 [label=<SE_IS &le; -0.325<br/>gini = 0.444<br/>samples = 9<br/>value = [6, 3]<br/>class = Não Obito>, fillcolor="#f2c09c"] ;
377 -> 379 ;
380 [label=<gini = 0.0<br/>samples = 5<br/>value = [5, 0]<br/>class = Não Obito>, fillcolor="#e58139"] ;
379 -> 380 ;
381 [label=<IDADE &le; -0.092<br/>gini = 0.375<br/>samples = 4<br/>value = [1, 3]<br/>class = Óbito>, fillcolor="#7bbeee"] ;
379 -> 381 ;
382 [label=<gini = 0.0<br/>samples = 1<br/>value = [1, 0]<br/>class = Não Obito>, fillcolor="#e58139"] ;
381 -> 382 ;
383 [label=<gini = 0.0<br/>samples = 3<br/>value = [0, 3]<br/>class = Óbito>, fillcolor="#399de5"] ;
381 -> 383 ;
384 [label=<IDADE &le; 0.128<br/>gini = 0.347<br/>samples = 94<br/>value = [73, 21]<br/>class = Não Obito>, fillcolor="#eca572"] ;
366 -> 384 ;
385 [label=<TAXA_VACINACAO &le; 0.552<br/>gini = 0.444<br/>samples = 54<br/>value = [36, 18]<br/>class = Não Obito>, fillcolor="#f2c09c"] ;
384 -> 385 ;
386 [label=<IDADE &le; -0.39<br/>gini = 0.415<br/>samples = 51<br/>value = [36, 15]<br/>class = Não Obito>, fillcolor="#f0b58b"] ;
385 -> 386 ;
387 [label=<IDADE &le; -0.576<br/>gini = 0.165<br/>samples = 22<br/>value = [20, 2]<br/>class = Não Obito>, fillcolor="#e88e4d"] ;
386 -> 387 ;
388 [label=<IDADE &le; -0.67<br/>gini = 0.26<br/>samples = 13<br/>value = [11, 2]<br/>class = Não Obito>, fillcolor="#ea985d"] ;
387 -> 388 ;
389 [label=<gini = 0.0<br/>samples = 7<br/>value = [7, 0]<br/>class = Não Obito>, fillcolor="#e58139"] ;
388 -> 389 ;
390 [label=<SE_IS &le; -0.494<br/>gini = 0.444<br/>samples = 6<br/>value = [4, 2]<br/>class = Não Obito>, fillcolor="#f2c09c"] ;
388 -> 390 ;
391 [label=<MACACOS_NUM_CASOS &le; 1.285<br/>gini = 0.48<br/>samples = 5<br/>value = [3, 2]<br/>class = Não Obito>, fillcolor="#f6d5bd"] ;
390 -> 391 ;
392 [label=<gini = 0.5<br/>samples = 2<br/>value = [1, 1]<br/>class = Não Obito>, fillcolor="#ffffff"] ;
391 -> 392 ;
393 [label=<gini = 0.444<br/>samples = 3<br/>value = [2, 1]<br/>class = Não Obito>, fillcolor="#f2c09c"] ;
391 -> 393 ;
394 [label=<gini = 0.0<br/>samples = 1<br/>value = [1, 0]<br/>class = Não Obito>, fillcolor="#e58139"] ;
390 -> 394 ;
395 [label=<gini = 0.0<br/>samples = 9<br/>value = [9, 0]<br/>class = Não Obito>, fillcolor="#e58139"] ;
387 -> 395 ;
396 [label=<SE_IS &le; -0.496<br/>gini = 0.495<br/>samples = 29<br/>value = [16, 13]<br/>class = Não Obito>, fillcolor="#fae7da"] ;
386 -> 396 ;
397 [label=<IDADE &le; -0.078<br/>gini = 0.444<br/>samples = 12<br/>value = [4, 8]<br/>class = Óbito>, fillcolor="#9ccef2"] ;
396 -> 397 ;
398 [label=<gini = 0.0<br/>samples = 5<br/>value = [0, 5]<br/>class = Óbito>, fillcolor="#399de5"] ;
397 -> 398 ;
399 [label=<MACACOS_NUM_CASOS &le; 1.285<br/>gini = 0.49<br/>samples = 7<br/>value = [4, 3]<br/>class = Não Obito>, fillcolor="#f8e0ce"] ;
397 -> 399 ;
400 [label=<ANO_IS &le; -0.419<br/>gini = 0.375<br/>samples = 4<br/>value = [1, 3]<br/>class = Óbito>, fillcolor="#7bbeee"] ;
399 -> 400 ;
401 [label=<gini = 0.0<br/>samples = 2<br/>value = [0, 2]<br/>class = Óbito>, fillcolor="#399de5"] ;
400 -> 401 ;
402 [label=<IDADE &le; 0.046<br/>gini = 0.5<br/>samples = 2<br/>value = [1, 1]<br/>class = Não Obito>, fillcolor="#ffffff"] ;
400 -> 402 ;
403 [label=<gini = 0.0<br/>samples = 1<br/>value = [1, 0]<br/>class = Não Obito>, fillcolor="#e58139"] ;
402 -> 403 ;
404 [label=<gini = 0.0<br/>samples = 1<br/>value = [0, 1]<br/>class = Óbito>, fillcolor="#399de5"] ;
402 -> 404 ;
405 [label=<gini = 0.0<br/>samples = 3<br/>value = [3, 0]<br/>class = Não Obito>, fillcolor="#e58139"] ;
399 -> 405 ;
406 [label=<IDADE &le; 0.022<br/>gini = 0.415<br/>samples = 17<br/>value = [12, 5]<br/>class = Não Obito>, fillcolor="#f0b58b"] ;
396 -> 406 ;
407 [label=<MACACOS_NUM_CASOS &le; 1.285<br/>gini = 0.32<br/>samples = 15<br/>value = [12, 3]<br/>class = Não Obito>, fillcolor="#eca06a"] ;
406 -> 407 ;
408 [label=<gini = 0.0<br/>samples = 10<br/>value = [10, 0]<br/>class = Não Obito>, fillcolor="#e58139"] ;
407 -> 408 ;
409 [label=<SE_IS &le; -0.391<br/>gini = 0.48<br/>samples = 5<br/>value = [2, 3]<br/>class = Óbito>, fillcolor="#bddef6"] ;
407 -> 409 ;
410 [label=<gini = 0.0<br/>samples = 1<br/>value = [1, 0]<br/>class = Não Obito>, fillcolor="#e58139"] ;
409 -> 410 ;
411 [label=<IDADE &le; -0.137<br/>gini = 0.375<br/>samples = 4<br/>value = [1, 3]<br/>class = Óbito>, fillcolor="#7bbeee"] ;
409 -> 411 ;
412 [label=<gini = 0.0<br/>samples = 3<br/>value = [0, 3]<br/>class = Óbito>, fillcolor="#399de5"] ;
411 -> 412 ;
413 [label=<gini = 0.0<br/>samples = 1<br/>value = [1, 0]<br/>class = Não Obito>, fillcolor="#e58139"] ;
411 -> 413 ;
414 [label=<gini = 0.0<br/>samples = 2<br/>value = [0, 2]<br/>class = Óbito>, fillcolor="#399de5"] ;
406 -> 414 ;
415 [label=<gini = 0.0<br/>samples = 3<br/>value = [0, 3]<br/>class = Óbito>, fillcolor="#399de5"] ;
385 -> 415 ;
416 [label=<IDADE &le; 0.731<br/>gini = 0.139<br/>samples = 40<br/>value = [37, 3]<br/>class = Não Obito>, fillcolor="#e78b49"] ;
384 -> 416 ;
417 [label=<IDADE &le; 0.171<br/>gini = 0.053<br/>samples = 37<br/>value = [36, 1]<br/>class = Não Obito>, fillcolor="#e6843e"] ;
416 -> 417 ;
418 [label=<SE_IS &le; -0.536<br/>gini = 0.198<br/>samples = 9<br/>value = [8, 1]<br/>class = Não Obito>, fillcolor="#e89152"] ;
417 -> 418 ;
419 [label=<IDHM &le; -1.002<br/>gini = 0.278<br/>samples = 6<br/>value = [5, 1]<br/>class = Não Obito>, fillcolor="#ea9a61"] ;
418 -> 419 ;
420 [label=<gini = 0.0<br/>samples = 1<br/>value = [1, 0]<br/>class = Não Obito>, fillcolor="#e58139"] ;
419 -> 420 ;
421 [label=<MACACOS_NUM_CASOS &le; 1.285<br/>gini = 0.32<br/>samples = 5<br/>value = [4, 1]<br/>class = Não Obito>, fillcolor="#eca06a"] ;
419 -> 421 ;
422 [label=<gini = 0.375<br/>samples = 4<br/>value = [3, 1]<br/>class = Não Obito>, fillcolor="#eeab7b"] ;
421 -> 422 ;
423 [label=<gini = 0.0<br/>samples = 1<br/>value = [1, 0]<br/>class = Não Obito>, fillcolor="#e58139"] ;
421 -> 423 ;
424 [label=<gini = 0.0<br/>samples = 3<br/>value = [3, 0]<br/>class = Não Obito>, fillcolor="#e58139"] ;
418 -> 424 ;
425 [label=<gini = 0.0<br/>samples = 28<br/>value = [28, 0]<br/>class = Não Obito>, fillcolor="#e58139"] ;
417 -> 425 ;
426 [label=<ANO_IS &le; -0.419<br/>gini = 0.444<br/>samples = 3<br/>value = [1, 2]<br/>class = Óbito>, fillcolor="#9ccef2"] ;
416 -> 426 ;
427 [label=<gini = 0.0<br/>samples = 1<br/>value = [1, 0]<br/>class = Não Obito>, fillcolor="#e58139"] ;
426 -> 427 ;
428 [label=<gini = 0.0<br/>samples = 2<br/>value = [0, 2]<br/>class = Óbito>, fillcolor="#399de5"] ;
426 -> 428 ;
429 [label=<GRUPO_RISCO &le; -0.254<br/>gini = 0.375<br/>samples = 16<br/>value = [4, 12]<br/>class = Óbito>, fillcolor="#7bbeee"] ;
365 -> 429 ;
430 [label=<gini = 0.0<br/>samples = 2<br/>value = [2, 0]<br/>class = Não Obito>, fillcolor="#e58139"] ;
429 -> 430 ;
431 [label=<SE_IS &le; -0.553<br/>gini = 0.245<br/>samples = 14<br/>value = [2, 12]<br/>class = Óbito>, fillcolor="#5aade9"] ;
429 -> 431 ;
432 [label=<IDADE &le; 0.88<br/>gini = 0.444<br/>samples = 6<br/>value = [2, 4]<br/>class = Óbito>, fillcolor="#9ccef2"] ;
431 -> 432 ;
433 [label=<gini = 0.0<br/>samples = 2<br/>value = [0, 2]<br/>class = Óbito>, fillcolor="#399de5"] ;
432 -> 433 ;
434 [label=<MACACOS_NUM_CASOS &le; 1.285<br/>gini = 0.5<br/>samples = 4<br/>value = [2, 2]<br/>class = Não Obito>, fillcolor="#ffffff"] ;
432 -> 434 ;
435 [label=<gini = 0.5<br/>samples = 2<br/>value = [1, 1]<br/>class = Não Obito>, fillcolor="#ffffff"] ;
434 -> 435 ;
436 [label=<gini = 0.5<br/>samples = 2<br/>value = [1, 1]<br/>class = Não Obito>, fillcolor="#ffffff"] ;
434 -> 436 ;
437 [label=<gini = 0.0<br/>samples = 8<br/>value = [0, 8]<br/>class = Óbito>, fillcolor="#399de5"] ;
431 -> 437 ;
438 [label=<gini = 0.0<br/>samples = 14<br/>value = [14, 0]<br/>class = Não Obito>, fillcolor="#e58139"] ;
330 -> 438 ;
439 [label=<SE_IS &le; -0.581<br/>gini = 0.424<br/>samples = 154<br/>value = [107, 47]<br/>class = Não Obito>, fillcolor="#f0b890"] ;
81 -> 439 ;
440 [label=<IDHM &le; -0.508<br/>gini = 0.365<br/>samples = 25<br/>value = [6, 19]<br/>class = Óbito>, fillcolor="#78bced"] ;
439 -> 440 ;
441 [label=<gini = 0.0<br/>samples = 4<br/>value = [4, 0]<br/>class = Não Obito>, fillcolor="#e58139"] ;
440 -> 441 ;
442 [label=<IDADE &le; -0.601<br/>gini = 0.172<br/>samples = 21<br/>value = [2, 19]<br/>class = Óbito>, fillcolor="#4ea7e8"] ;
440 -> 442 ;
443 [label=<gini = 0.0<br/>samples = 1<br/>value = [1, 0]<br/>class = Não Obito>, fillcolor="#e58139"] ;
442 -> 443 ;
444 [label=<CONCENTRACAO_FOCOS_CALOR &le; 0.078<br/>gini = 0.095<br/>samples = 20<br/>value = [1, 19]<br/>class = Óbito>, fillcolor="#43a2e6"] ;
442 -> 444 ;
445 [label=<gini = 0.0<br/>samples = 17<br/>value = [0, 17]<br/>class = Óbito>, fillcolor="#399de5"] ;
444 -> 445 ;
446 [label=<IDADE &le; -0.004<br/>gini = 0.444<br/>samples = 3<br/>value = [1, 2]<br/>class = Óbito>, fillcolor="#9ccef2"] ;
444 -> 446 ;
447 [label=<gini = 0.0<br/>samples = 2<br/>value = [0, 2]<br/>class = Óbito>, fillcolor="#399de5"] ;
446 -> 447 ;
448 [label=<gini = 0.0<br/>samples = 1<br/>value = [1, 0]<br/>class = Não Obito>, fillcolor="#e58139"] ;
446 -> 448 ;
449 [label=<CONCENTRACAO_FOCOS_CALOR &le; 0.141<br/>gini = 0.34<br/>samples = 129<br/>value = [101, 28]<br/>class = Não Obito>, fillcolor="#eca470"] ;
439 -> 449 ;
450 [label=<TAXA_VACINACAO &le; 1.025<br/>gini = 0.31<br/>samples = 125<br/>value = [101, 24]<br/>class = Não Obito>, fillcolor="#eb9f68"] ;
449 -> 450 ;
451 [label=<SE_IS &le; -0.175<br/>gini = 0.484<br/>samples = 17<br/>value = [10, 7]<br/>class = Não Obito>, fillcolor="#f7d9c4"] ;
450 -> 451 ;
452 [label=<CONCENTRACAO_FOCOS_CALOR &le; -0.17<br/>gini = 0.463<br/>samples = 11<br/>value = [4, 7]<br/>class = Óbito>, fillcolor="#aad5f4"] ;
451 -> 452 ;
453 [label=<SE_IS &le; -0.367<br/>gini = 0.444<br/>samples = 6<br/>value = [4, 2]<br/>class = Não Obito>, fillcolor="#f2c09c"] ;
452 -> 453 ;
454 [label=<IDADE &le; -0.039<br/>gini = 0.32<br/>samples = 5<br/>value = [4, 1]<br/>class = Não Obito>, fillcolor="#eca06a"] ;
453 -> 454 ;
455 [label=<gini = 0.0<br/>samples = 3<br/>value = [3, 0]<br/>class = Não Obito>, fillcolor="#e58139"] ;
454 -> 455 ;
456 [label=<CLASSIFIC_INST_SANITARIAS &le; 0.119<br/>gini = 0.5<br/>samples = 2<br/>value = [1, 1]<br/>class = Não Obito>, fillcolor="#ffffff"] ;
454 -> 456 ;
457 [label=<gini = 0.0<br/>samples = 1<br/>value = [1, 0]<br/>class = Não Obito>, fillcolor="#e58139"] ;
456 -> 457 ;
458 [label=<gini = 0.0<br/>samples = 1<br/>value = [0, 1]<br/>class = Óbito>, fillcolor="#399de5"] ;
456 -> 458 ;
459 [label=<gini = 0.0<br/>samples = 1<br/>value = [0, 1]<br/>class = Óbito>, fillcolor="#399de5"] ;
453 -> 459 ;
460 [label=<gini = 0.0<br/>samples = 5<br/>value = [0, 5]<br/>class = Óbito>, fillcolor="#399de5"] ;
452 -> 460 ;
461 [label=<gini = 0.0<br/>samples = 6<br/>value = [6, 0]<br/>class = Não Obito>, fillcolor="#e58139"] ;
451 -> 461 ;
462 [label=<COD_MUN_LPI &le; 0.445<br/>gini = 0.265<br/>samples = 108<br/>value = [91, 17]<br/>class = Não Obito>, fillcolor="#ea995e"] ;
450 -> 462 ;
463 [label=<SE_IS &le; -0.45<br/>gini = 0.228<br/>samples = 99<br/>value = [86, 13]<br/>class = Não Obito>, fillcolor="#e99457"] ;
462 -> 463 ;
464 [label=<IDADE &le; -0.483<br/>gini = 0.312<br/>samples = 62<br/>value = [50, 12]<br/>class = Não Obito>, fillcolor="#eb9f69"] ;
463 -> 464 ;
465 [label=<gini = 0.0<br/>samples = 14<br/>value = [14, 0]<br/>class = Não Obito>, fillcolor="#e58139"] ;
464 -> 465 ;
466 [label=<IDADE &le; -0.209<br/>gini = 0.375<br/>samples = 48<br/>value = [36, 12]<br/>class = Não Obito>, fillcolor="#eeab7b"] ;
464 -> 466 ;
467 [label=<GINI &le; 1.415<br/>gini = 0.5<br/>samples = 8<br/>value = [4, 4]<br/>class = Não Obito>, fillcolor="#ffffff"] ;
466 -> 467 ;
468 [label=<gini = 0.0<br/>samples = 4<br/>value = [0, 4]<br/>class = Óbito>, fillcolor="#399de5"] ;
467 -> 468 ;
469 [label=<gini = 0.0<br/>samples = 4<br/>value = [4, 0]<br/>class = Não Obito>, fillcolor="#e58139"] ;
467 -> 469 ;
470 [label=<IDADE &le; 0.004<br/>gini = 0.32<br/>samples = 40<br/>value = [32, 8]<br/>class = Não Obito>, fillcolor="#eca06a"] ;
466 -> 470 ;
471 [label=<gini = 0.0<br/>samples = 12<br/>value = [12, 0]<br/>class = Não Obito>, fillcolor="#e58139"] ;
470 -> 471 ;
472 [label=<SE_IS &le; -0.549<br/>gini = 0.408<br/>samples = 28<br/>value = [20, 8]<br/>class = Não Obito>, fillcolor="#efb388"] ;
470 -> 472 ;
473 [label=<IDADE &le; 0.14<br/>gini = 0.208<br/>samples = 17<br/>value = [15, 2]<br/>class = Não Obito>, fillcolor="#e89253"] ;
472 -> 473 ;
474 [label=<COD_MUN_LPI &le; -0.143<br/>gini = 0.48<br/>samples = 5<br/>value = [3, 2]<br/>class = Não Obito>, fillcolor="#f6d5bd"] ;
473 -> 474 ;
475 [label=<gini = 0.0<br/>samples = 2<br/>value = [0, 2]<br/>class = Óbito>, fillcolor="#399de5"] ;
474 -> 475 ;
476 [label=<gini = 0.0<br/>samples = 3<br/>value = [3, 0]<br/>class = Não Obito>, fillcolor="#e58139"] ;
474 -> 476 ;
477 [label=<gini = 0.0<br/>samples = 12<br/>value = [12, 0]<br/>class = Não Obito>, fillcolor="#e58139"] ;
473 -> 477 ;
478 [label=<IDADE &le; 0.886<br/>gini = 0.496<br/>samples = 11<br/>value = [5, 6]<br/>class = Óbito>, fillcolor="#deeffb"] ;
472 -> 478 ;
479 [label=<IDADE &le; 0.353<br/>gini = 0.444<br/>samples = 9<br/>value = [3, 6]<br/>class = Óbito>, fillcolor="#9ccef2"] ;
478 -> 479 ;
480 [label=<IDADE &le; 0.108<br/>gini = 0.48<br/>samples = 5<br/>value = [3, 2]<br/>class = Não Obito>, fillcolor="#f6d5bd"] ;
479 -> 480 ;
481 [label=<gini = 0.0<br/>samples = 2<br/>value = [0, 2]<br/>class = Óbito>, fillcolor="#399de5"] ;
480 -> 481 ;
482 [label=<gini = 0.0<br/>samples = 3<br/>value = [3, 0]<br/>class = Não Obito>, fillcolor="#e58139"] ;
480 -> 482 ;
483 [label=<gini = 0.0<br/>samples = 4<br/>value = [0, 4]<br/>class = Óbito>, fillcolor="#399de5"] ;
479 -> 483 ;
484 [label=<gini = 0.0<br/>samples = 2<br/>value = [2, 0]<br/>class = Não Obito>, fillcolor="#e58139"] ;
478 -> 484 ;
485 [label=<MACACOS_NUM_CASOS &le; -0.354<br/>gini = 0.053<br/>samples = 37<br/>value = [36, 1]<br/>class = Não Obito>, fillcolor="#e6843e"] ;
463 -> 485 ;
486 [label=<gini = 0.0<br/>samples = 31<br/>value = [31, 0]<br/>class = Não Obito>, fillcolor="#e58139"] ;
485 -> 486 ;
487 [label=<SE_IS &le; -0.367<br/>gini = 0.278<br/>samples = 6<br/>value = [5, 1]<br/>class = Não Obito>, fillcolor="#ea9a61"] ;
485 -> 487 ;
488 [label=<gini = 0.0<br/>samples = 3<br/>value = [3, 0]<br/>class = Não Obito>, fillcolor="#e58139"] ;
487 -> 488 ;
489 [label=<IDADE &le; 0.046<br/>gini = 0.444<br/>samples = 3<br/>value = [2, 1]<br/>class = Não Obito>, fillcolor="#f2c09c"] ;
487 -> 489 ;
490 [label=<gini = 0.0<br/>samples = 1<br/>value = [0, 1]<br/>class = Óbito>, fillcolor="#399de5"] ;
489 -> 490 ;
491 [label=<gini = 0.0<br/>samples = 2<br/>value = [2, 0]<br/>class = Não Obito>, fillcolor="#e58139"] ;
489 -> 491 ;
492 [label=<ANO_IS &le; 1.952<br/>gini = 0.494<br/>samples = 9<br/>value = [5, 4]<br/>class = Não Obito>, fillcolor="#fae6d7"] ;
462 -> 492 ;
493 [label=<IDADE &le; 0.575<br/>gini = 0.32<br/>samples = 5<br/>value = [1, 4]<br/>class = Óbito>, fillcolor="#6ab6ec"] ;
492 -> 493 ;
494 [label=<gini = 0.0<br/>samples = 4<br/>value = [0, 4]<br/>class = Óbito>, fillcolor="#399de5"] ;
493 -> 494 ;
495 [label=<gini = 0.0<br/>samples = 1<br/>value = [1, 0]<br/>class = Não Obito>, fillcolor="#e58139"] ;
493 -> 495 ;
496 [label=<gini = 0.0<br/>samples = 4<br/>value = [4, 0]<br/>class = Não Obito>, fillcolor="#e58139"] ;
492 -> 496 ;
497 [label=<gini = 0.0<br/>samples = 4<br/>value = [0, 4]<br/>class = Óbito>, fillcolor="#399de5"] ;
449 -> 497 ;
498 [label=<TAXA_MORTALIDADE &le; -0.791<br/>gini = 0.438<br/>samples = 334<br/>value = [108, 226]<br/>class = Óbito>, fillcolor="#98ccf1"] ;
80 -> 498 ;
499 [label=<TAXA_VACINACAO &le; -0.206<br/>gini = 0.163<br/>samples = 56<br/>value = [5, 51]<br/>class = Óbito>, fillcolor="#4ca7e8"] ;
498 -> 499 ;
500 [label=<IDADE &le; 0.14<br/>gini = 0.48<br/>samples = 10<br/>value = [4, 6]<br/>class = Óbito>, fillcolor="#bddef6"] ;
499 -> 500 ;
501 [label=<gini = 0.0<br/>samples = 4<br/>value = [0, 4]<br/>class = Óbito>, fillcolor="#399de5"] ;
500 -> 501 ;
502 [label=<TAXA_VACINACAO &le; -1.13<br/>gini = 0.444<br/>samples = 6<br/>value = [4, 2]<br/>class = Não Obito>, fillcolor="#f2c09c"] ;
500 -> 502 ;
503 [label=<IDADE &le; 0.295<br/>gini = 0.444<br/>samples = 3<br/>value = [1, 2]<br/>class = Óbito>, fillcolor="#9ccef2"] ;
502 -> 503 ;
504 [label=<gini = 0.0<br/>samples = 1<br/>value = [1, 0]<br/>class = Não Obito>, fillcolor="#e58139"] ;
503 -> 504 ;
505 [label=<gini = 0.0<br/>samples = 2<br/>value = [0, 2]<br/>class = Óbito>, fillcolor="#399de5"] ;
503 -> 505 ;
506 [label=<gini = 0.0<br/>samples = 3<br/>value = [3, 0]<br/>class = Não Obito>, fillcolor="#e58139"] ;
502 -> 506 ;
507 [label=<COBERTURA_VEGETAL_NATURAL &le; -1.083<br/>gini = 0.043<br/>samples = 46<br/>value = [1, 45]<br/>class = Óbito>, fillcolor="#3d9fe6"] ;
499 -> 507 ;
508 [label=<IDADE &le; -0.981<br/>gini = 0.198<br/>samples = 9<br/>value = [1, 8]<br/>class = Óbito>, fillcolor="#52a9e8"] ;
507 -> 508 ;
509 [label=<MACACOS_NUM_CASOS &le; -0.105<br/>gini = 0.5<br/>samples = 2<br/>value = [1, 1]<br/>class = Não Obito>, fillcolor="#ffffff"] ;
508 -> 509 ;
510 [label=<gini = 0.0<br/>samples = 1<br/>value = [1, 0]<br/>class = Não Obito>, fillcolor="#e58139"] ;
509 -> 510 ;
511 [label=<gini = 0.0<br/>samples = 1<br/>value = [0, 1]<br/>class = Óbito>, fillcolor="#399de5"] ;
509 -> 511 ;
512 [label=<gini = 0.0<br/>samples = 7<br/>value = [0, 7]<br/>class = Óbito>, fillcolor="#399de5"] ;
508 -> 512 ;
513 [label=<gini = 0.0<br/>samples = 37<br/>value = [0, 37]<br/>class = Óbito>, fillcolor="#399de5"] ;
507 -> 513 ;
514 [label=<GRUPO_RISCO &le; -0.098<br/>gini = 0.466<br/>samples = 278<br/>value = [103, 175]<br/>class = Óbito>, fillcolor="#aed7f4"] ;
498 -> 514 ;
515 [label=<IDADE &le; 0.52<br/>gini = 0.452<br/>samples = 267<br/>value = [92, 175]<br/>class = Óbito>, fillcolor="#a1d1f3"] ;
514 -> 515 ;
516 [label=<COBERTURA_VEGETAL_NATURAL &le; -0.808<br/>gini = 0.49<br/>samples = 184<br/>value = [79, 105]<br/>class = Óbito>, fillcolor="#cee7f9"] ;
515 -> 516 ;
517 [label=<CONCENTRACAO_FOCOS_CALOR &le; 0.046<br/>gini = 0.231<br/>samples = 30<br/>value = [4, 26]<br/>class = Óbito>, fillcolor="#57ace9"] ;
516 -> 517 ;
518 [label=<IDADE &le; -0.265<br/>gini = 0.185<br/>samples = 29<br/>value = [3, 26]<br/>class = Óbito>, fillcolor="#50a8e8"] ;
517 -> 518 ;
519 [label=<IDADE &le; -0.639<br/>gini = 0.337<br/>samples = 14<br/>value = [3, 11]<br/>class = Óbito>, fillcolor="#6fb8ec"] ;
518 -> 519 ;
520 [label=<gini = 0.0<br/>samples = 8<br/>value = [0, 8]<br/>class = Óbito>, fillcolor="#399de5"] ;
519 -> 520 ;
521 [label=<IDADE &le; -0.576<br/>gini = 0.5<br/>samples = 6<br/>value = [3, 3]<br/>class = Não Obito>, fillcolor="#ffffff"] ;
519 -> 521 ;
522 [label=<gini = 0.0<br/>samples = 2<br/>value = [2, 0]<br/>class = Não Obito>, fillcolor="#e58139"] ;
521 -> 522 ;
523 [label=<SE_IS &le; 0.479<br/>gini = 0.375<br/>samples = 4<br/>value = [1, 3]<br/>class = Óbito>, fillcolor="#7bbeee"] ;
521 -> 523 ;
524 [label=<gini = 0.0<br/>samples = 1<br/>value = [1, 0]<br/>class = Não Obito>, fillcolor="#e58139"] ;
523 -> 524 ;
525 [label=<gini = 0.0<br/>samples = 3<br/>value = [0, 3]<br/>class = Óbito>, fillcolor="#399de5"] ;
523 -> 525 ;
526 [label=<gini = 0.0<br/>samples = 15<br/>value = [0, 15]<br/>class = Óbito>, fillcolor="#399de5"] ;
518 -> 526 ;
527 [label=<gini = 0.0<br/>samples = 1<br/>value = [1, 0]<br/>class = Não Obito>, fillcolor="#e58139"] ;
517 -> 527 ;
528 [label=<GRUPO_RISCO &le; -0.255<br/>gini = 0.5<br/>samples = 154<br/>value = [75, 79]<br/>class = Óbito>, fillcolor="#f5fafe"] ;
516 -> 528 ;
529 [label=<gini = 0.0<br/>samples = 14<br/>value = [0, 14]<br/>class = Óbito>, fillcolor="#399de5"] ;
528 -> 529 ;
530 [label=<GRUPO_RISCO &le; -0.219<br/>gini = 0.497<br/>samples = 140<br/>value = [75, 65]<br/>class = Não Obito>, fillcolor="#fceee5"] ;
528 -> 530 ;
531 [label=<IDADE &le; 0.046<br/>gini = 0.487<br/>samples = 122<br/>value = [71, 51]<br/>class = Não Obito>, fillcolor="#f8dcc7"] ;
530 -> 531 ;
532 [label=<COD_MUN_LPI &le; -0.239<br/>gini = 0.424<br/>samples = 72<br/>value = [50, 22]<br/>class = Não Obito>, fillcolor="#f0b890"] ;
531 -> 532 ;
533 [label=<MACACOS_NUM_CASOS &le; -0.453<br/>gini = 0.499<br/>samples = 31<br/>value = [15, 16]<br/>class = Óbito>, fillcolor="#f3f9fd"] ;
532 -> 533 ;
534 [label=<MACACOS_NUM_CASOS &le; -0.483<br/>gini = 0.415<br/>samples = 17<br/>value = [5, 12]<br/>class = Óbito>, fillcolor="#8bc6f0"] ;
533 -> 534 ;
535 [label=<GINI &le; -0.152<br/>gini = 0.496<br/>samples = 11<br/>value = [5, 6]<br/>class = Óbito>, fillcolor="#deeffb"] ;
534 -> 535 ;
536 [label=<IDADE &le; -0.919<br/>gini = 0.278<br/>samples = 6<br/>value = [1, 5]<br/>class = Óbito>, fillcolor="#61b1ea"] ;
535 -> 536 ;
537 [label=<gini = 0.0<br/>samples = 1<br/>value = [1, 0]<br/>class = Não Obito>, fillcolor="#e58139"] ;
536 -> 537 ;
538 [label=<gini = 0.0<br/>samples = 5<br/>value = [0, 5]<br/>class = Óbito>, fillcolor="#399de5"] ;
536 -> 538 ;
539 [label=<IDADE &le; -0.825<br/>gini = 0.32<br/>samples = 5<br/>value = [4, 1]<br/>class = Não Obito>, fillcolor="#eca06a"] ;
535 -> 539 ;
540 [label=<gini = 0.0<br/>samples = 1<br/>value = [0, 1]<br/>class = Óbito>, fillcolor="#399de5"] ;
539 -> 540 ;
541 [label=<gini = 0.0<br/>samples = 4<br/>value = [4, 0]<br/>class = Não Obito>, fillcolor="#e58139"] ;
539 -> 541 ;
542 [label=<gini = 0.0<br/>samples = 6<br/>value = [0, 6]<br/>class = Óbito>, fillcolor="#399de5"] ;
534 -> 542 ;
543 [label=<IDADE &le; -0.109<br/>gini = 0.408<br/>samples = 14<br/>value = [10, 4]<br/>class = Não Obito>, fillcolor="#efb388"] ;
533 -> 543 ;
544 [label=<IDHM &le; -2.207<br/>gini = 0.278<br/>samples = 12<br/>value = [10, 2]<br/>class = Não Obito>, fillcolor="#ea9a61"] ;
543 -> 544 ;
545 [label=<gini = 0.0<br/>samples = 1<br/>value = [0, 1]<br/>class = Óbito>, fillcolor="#399de5"] ;
544 -> 545 ;
546 [label=<COBERTURA_VEGETAL_NATURAL &le; 0.469<br/>gini = 0.165<br/>samples = 11<br/>value = [10, 1]<br/>class = Não Obito>, fillcolor="#e88e4d"] ;
544 -> 546 ;
547 [label=<gini = 0.0<br/>samples = 8<br/>value = [8, 0]<br/>class = Não Obito>, fillcolor="#e58139"] ;
546 -> 547 ;
548 [label=<SE_IS &le; 0.394<br/>gini = 0.444<br/>samples = 3<br/>value = [2, 1]<br/>class = Não Obito>, fillcolor="#f2c09c"] ;
546 -> 548 ;
549 [label=<IDADE &le; -0.367<br/>gini = 0.5<br/>samples = 2<br/>value = [1, 1]<br/>class = Não Obito>, fillcolor="#ffffff"] ;
548 -> 549 ;
550 [label=<gini = 0.0<br/>samples = 1<br/>value = [1, 0]<br/>class = Não Obito>, fillcolor="#e58139"] ;
549 -> 550 ;
551 [label=<gini = 0.0<br/>samples = 1<br/>value = [0, 1]<br/>class = Óbito>, fillcolor="#399de5"] ;
549 -> 551 ;
552 [label=<gini = 0.0<br/>samples = 1<br/>value = [1, 0]<br/>class = Não Obito>, fillcolor="#e58139"] ;
548 -> 552 ;
553 [label=<gini = 0.0<br/>samples = 2<br/>value = [0, 2]<br/>class = Óbito>, fillcolor="#399de5"] ;
543 -> 553 ;
554 [label=<SE_IS &le; 0.069<br/>gini = 0.25<br/>samples = 41<br/>value = [35, 6]<br/>class = Não Obito>, fillcolor="#e9975b"] ;
532 -> 554 ;
555 [label=<gini = 0.0<br/>samples = 1<br/>value = [0, 1]<br/>class = Óbito>, fillcolor="#399de5"] ;
554 -> 555 ;
556 [label=<TAXA_MORTALIDADE &le; -0.79<br/>gini = 0.219<br/>samples = 40<br/>value = [35, 5]<br/>class = Não Obito>, fillcolor="#e99355"] ;
554 -> 556 ;
557 [label=<gini = 0.0<br/>samples = 1<br/>value = [0, 1]<br/>class = Óbito>, fillcolor="#399de5"] ;
556 -> 557 ;
558 [label=<SE_IS &le; 3.588<br/>gini = 0.184<br/>samples = 39<br/>value = [35, 4]<br/>class = Não Obito>, fillcolor="#e88f50"] ;
556 -> 558 ;
559 [label=<CONCENTRACAO_FOCOS_CALOR &le; -0.185<br/>gini = 0.071<br/>samples = 27<br/>value = [26, 1]<br/>class = Não Obito>, fillcolor="#e68641"] ;
558 -> 559 ;
560 [label=<SE_IS &le; 0.479<br/>gini = 0.444<br/>samples = 3<br/>value = [2, 1]<br/>class = Não Obito>, fillcolor="#f2c09c"] ;
559 -> 560 ;
561 [label=<gini = 0.0<br/>samples = 1<br/>value = [0, 1]<br/>class = Óbito>, fillcolor="#399de5"] ;
560 -> 561 ;
562 [label=<gini = 0.0<br/>samples = 2<br/>value = [2, 0]<br/>class = Não Obito>, fillcolor="#e58139"] ;
560 -> 562 ;
563 [label=<gini = 0.0<br/>samples = 24<br/>value = [24, 0]<br/>class = Não Obito>, fillcolor="#e58139"] ;
559 -> 563 ;
564 [label=<SE_IS &le; 3.631<br/>gini = 0.375<br/>samples = 12<br/>value = [9, 3]<br/>class = Não Obito>, fillcolor="#eeab7b"] ;
558 -> 564 ;
565 [label=<gini = 0.0<br/>samples = 1<br/>value = [0, 1]<br/>class = Óbito>, fillcolor="#399de5"] ;
564 -> 565 ;
566 [label=<IDADE &le; -0.296<br/>gini = 0.298<br/>samples = 11<br/>value = [9, 2]<br/>class = Não Obito>, fillcolor="#eb9d65"] ;
564 -> 566 ;
567 [label=<gini = 0.0<br/>samples = 4<br/>value = [4, 0]<br/>class = Não Obito>, fillcolor="#e58139"] ;
566 -> 567 ;
568 [label=<SOBRE60 &le; 0.382<br/>gini = 0.408<br/>samples = 7<br/>value = [5, 2]<br/>class = Não Obito>, fillcolor="#efb388"] ;
566 -> 568 ;
569 [label=<gini = 0.0<br/>samples = 2<br/>value = [2, 0]<br/>class = Não Obito>, fillcolor="#e58139"] ;
568 -> 569 ;
570 [label=<MACACOS_NUM_CASOS &le; 1.285<br/>gini = 0.48<br/>samples = 5<br/>value = [3, 2]<br/>class = Não Obito>, fillcolor="#f6d5bd"] ;
568 -> 570 ;
571 [label=<gini = 0.5<br/>samples = 2<br/>value = [1, 1]<br/>class = Não Obito>, fillcolor="#ffffff"] ;
570 -> 571 ;
572 [label=<gini = 0.444<br/>samples = 3<br/>value = [2, 1]<br/>class = Não Obito>, fillcolor="#f2c09c"] ;
570 -> 572 ;
573 [label=<CONCENTRACAO_FOCOS_CALOR &le; -0.212<br/>gini = 0.487<br/>samples = 50<br/>value = [21, 29]<br/>class = Óbito>, fillcolor="#c8e4f8"] ;
531 -> 573 ;
574 [label=<COD_MUN_LPI &le; -0.526<br/>gini = 0.408<br/>samples = 21<br/>value = [15, 6]<br/>class = Não Obito>, fillcolor="#efb388"] ;
573 -> 574 ;
575 [label=<gini = 0.0<br/>samples = 2<br/>value = [0, 2]<br/>class = Óbito>, fillcolor="#399de5"] ;
574 -> 575 ;
576 [label=<MACACOS_NUM_CASOS &le; -0.469<br/>gini = 0.332<br/>samples = 19<br/>value = [15, 4]<br/>class = Não Obito>, fillcolor="#eca36e"] ;
574 -> 576 ;
577 [label=<gini = 0.0<br/>samples = 5<br/>value = [5, 0]<br/>class = Não Obito>, fillcolor="#e58139"] ;
576 -> 577 ;
578 [label=<IDADE &le; 0.108<br/>gini = 0.408<br/>samples = 14<br/>value = [10, 4]<br/>class = Não Obito>, fillcolor="#efb388"] ;
576 -> 578 ;
579 [label=<gini = 0.0<br/>samples = 2<br/>value = [2, 0]<br/>class = Não Obito>, fillcolor="#e58139"] ;
578 -> 579 ;
580 [label=<IDADE &le; 0.171<br/>gini = 0.444<br/>samples = 12<br/>value = [8, 4]<br/>class = Não Obito>, fillcolor="#f2c09c"] ;
578 -> 580 ;
581 [label=<GINI &le; 0.719<br/>gini = 0.444<br/>samples = 3<br/>value = [1, 2]<br/>class = Óbito>, fillcolor="#9ccef2"] ;
580 -> 581 ;
582 [label=<gini = 0.0<br/>samples = 2<br/>value = [0, 2]<br/>class = Óbito>, fillcolor="#399de5"] ;
581 -> 582 ;
583 [label=<gini = 0.0<br/>samples = 1<br/>value = [1, 0]<br/>class = Não Obito>, fillcolor="#e58139"] ;
581 -> 583 ;
584 [label=<SE_IS &le; 0.31<br/>gini = 0.346<br/>samples = 9<br/>value = [7, 2]<br/>class = Não Obito>, fillcolor="#eca572"] ;
580 -> 584 ;
585 [label=<gini = 0.0<br/>samples = 3<br/>value = [3, 0]<br/>class = Não Obito>, fillcolor="#e58139"] ;
584 -> 585 ;
586 [label=<IDADE &le; 0.482<br/>gini = 0.444<br/>samples = 6<br/>value = [4, 2]<br/>class = Não Obito>, fillcolor="#f2c09c"] ;
584 -> 586 ;
587 [label=<SE_IS &le; 0.394<br/>gini = 0.32<br/>samples = 5<br/>value = [4, 1]<br/>class = Não Obito>, fillcolor="#eca06a"] ;
586 -> 587 ;
588 [label=<gini = 0.0<br/>samples = 3<br/>value = [3, 0]<br/>class = Não Obito>, fillcolor="#e58139"] ;
587 -> 588 ;
589 [label=<IDADE &le; 0.295<br/>gini = 0.5<br/>samples = 2<br/>value = [1, 1]<br/>class = Não Obito>, fillcolor="#ffffff"] ;
587 -> 589 ;
590 [label=<gini = 0.0<br/>samples = 1<br/>value = [0, 1]<br/>class = Óbito>, fillcolor="#399de5"] ;
589 -> 590 ;
591 [label=<gini = 0.0<br/>samples = 1<br/>value = [1, 0]<br/>class = Não Obito>, fillcolor="#e58139"] ;
589 -> 591 ;
592 [label=<gini = 0.0<br/>samples = 1<br/>value = [0, 1]<br/>class = Óbito>, fillcolor="#399de5"] ;
586 -> 592 ;
593 [label=<GINI &le; -0.848<br/>gini = 0.328<br/>samples = 29<br/>value = [6, 23]<br/>class = Óbito>, fillcolor="#6db7ec"] ;
573 -> 593 ;
594 [label=<gini = 0.0<br/>samples = 2<br/>value = [2, 0]<br/>class = Não Obito>, fillcolor="#e58139"] ;
593 -> 594 ;
595 [label=<COD_MUN_LPI &le; 0.491<br/>gini = 0.252<br/>samples = 27<br/>value = [4, 23]<br/>class = Óbito>, fillcolor="#5baeea"] ;
593 -> 595 ;
596 [label=<gini = 0.0<br/>samples = 11<br/>value = [0, 11]<br/>class = Óbito>, fillcolor="#399de5"] ;
595 -> 596 ;
597 [label=<IDADE &le; 0.108<br/>gini = 0.375<br/>samples = 16<br/>value = [4, 12]<br/>class = Óbito>, fillcolor="#7bbeee"] ;
595 -> 597 ;
598 [label=<gini = 0.0<br/>samples = 3<br/>value = [0, 3]<br/>class = Óbito>, fillcolor="#399de5"] ;
597 -> 598 ;
599 [label=<IDADE &le; 0.202<br/>gini = 0.426<br/>samples = 13<br/>value = [4, 9]<br/>class = Óbito>, fillcolor="#91c9f1"] ;
597 -> 599 ;
600 [label=<gini = 0.0<br/>samples = 2<br/>value = [2, 0]<br/>class = Não Obito>, fillcolor="#e58139"] ;
599 -> 600 ;
601 [label=<IDADE &le; 0.387<br/>gini = 0.298<br/>samples = 11<br/>value = [2, 9]<br/>class = Óbito>, fillcolor="#65b3eb"] ;
599 -> 601 ;
602 [label=<gini = 0.0<br/>samples = 6<br/>value = [0, 6]<br/>class = Óbito>, fillcolor="#399de5"] ;
601 -> 602 ;
603 [label=<IDADE &le; 0.42<br/>gini = 0.48<br/>samples = 5<br/>value = [2, 3]<br/>class = Óbito>, fillcolor="#bddef6"] ;
601 -> 603 ;
604 [label=<MACACOS_NUM_CASOS &le; 1.285<br/>gini = 0.444<br/>samples = 3<br/>value = [2, 1]<br/>class = Não Obito>, fillcolor="#f2c09c"] ;
603 -> 604 ;
605 [label=<gini = 0.0<br/>samples = 1<br/>value = [1, 0]<br/>class = Não Obito>, fillcolor="#e58139"] ;
604 -> 605 ;
606 [label=<gini = 0.5<br/>samples = 2<br/>value = [1, 1]<br/>class = Não Obito>, fillcolor="#ffffff"] ;
604 -> 606 ;
607 [label=<gini = 0.0<br/>samples = 2<br/>value = [0, 2]<br/>class = Óbito>, fillcolor="#399de5"] ;
603 -> 607 ;
608 [label=<IDADE &le; 0.09<br/>gini = 0.346<br/>samples = 18<br/>value = [4, 14]<br/>class = Óbito>, fillcolor="#72b9ec"] ;
530 -> 608 ;
609 [label=<IDADE &le; -0.179<br/>gini = 0.133<br/>samples = 14<br/>value = [1, 13]<br/>class = Óbito>, fillcolor="#48a5e7"] ;
608 -> 609 ;
610 [label=<gini = 0.0<br/>samples = 11<br/>value = [0, 11]<br/>class = Óbito>, fillcolor="#399de5"] ;
609 -> 610 ;
611 [label=<GINI &le; 0.632<br/>gini = 0.444<br/>samples = 3<br/>value = [1, 2]<br/>class = Óbito>, fillcolor="#9ccef2"] ;
609 -> 611 ;
612 [label=<gini = 0.0<br/>samples = 1<br/>value = [1, 0]<br/>class = Não Obito>, fillcolor="#e58139"] ;
611 -> 612 ;
613 [label=<gini = 0.0<br/>samples = 2<br/>value = [0, 2]<br/>class = Óbito>, fillcolor="#399de5"] ;
611 -> 613 ;
614 [label=<CLASSIFIC_INST_SANITARIAS &le; 0.785<br/>gini = 0.375<br/>samples = 4<br/>value = [3, 1]<br/>class = Não Obito>, fillcolor="#eeab7b"] ;
608 -> 614 ;
615 [label=<gini = 0.0<br/>samples = 3<br/>value = [3, 0]<br/>class = Não Obito>, fillcolor="#e58139"] ;
614 -> 615 ;
616 [label=<gini = 0.0<br/>samples = 1<br/>value = [0, 1]<br/>class = Óbito>, fillcolor="#399de5"] ;
614 -> 616 ;
617 [label=<GINI &le; -0.299<br/>gini = 0.264<br/>samples = 83<br/>value = [13, 70]<br/>class = Óbito>, fillcolor="#5eafea"] ;
515 -> 617 ;
618 [label=<TAXA_VACINACAO &le; -0.905<br/>gini = 0.478<br/>samples = 33<br/>value = [13, 20]<br/>class = Óbito>, fillcolor="#baddf6"] ;
617 -> 618 ;
619 [label=<gini = 0.0<br/>samples = 7<br/>value = [0, 7]<br/>class = Óbito>, fillcolor="#399de5"] ;
618 -> 619 ;
620 [label=<COD_MUN_LPI &le; -0.525<br/>gini = 0.5<br/>samples = 26<br/>value = [13, 13]<br/>class = Não Obito>, fillcolor="#ffffff"] ;
618 -> 620 ;
621 [label=<MACACOS_NUM_CASOS &le; -0.226<br/>gini = 0.375<br/>samples = 8<br/>value = [2, 6]<br/>class = Óbito>, fillcolor="#7bbeee"] ;
620 -> 621 ;
622 [label=<SOBRE60 &le; -0.243<br/>gini = 0.245<br/>samples = 7<br/>value = [1, 6]<br/>class = Óbito>, fillcolor="#5aade9"] ;
621 -> 622 ;
623 [label=<gini = 0.0<br/>samples = 4<br/>value = [0, 4]<br/>class = Óbito>, fillcolor="#399de5"] ;
622 -> 623 ;
624 [label=<SE_IS &le; 0.569<br/>gini = 0.444<br/>samples = 3<br/>value = [1, 2]<br/>class = Óbito>, fillcolor="#9ccef2"] ;
622 -> 624 ;
625 [label=<gini = 0.0<br/>samples = 1<br/>value = [1, 0]<br/>class = Não Obito>, fillcolor="#e58139"] ;
624 -> 625 ;
626 [label=<gini = 0.0<br/>samples = 2<br/>value = [0, 2]<br/>class = Óbito>, fillcolor="#399de5"] ;
624 -> 626 ;
627 [label=<gini = 0.0<br/>samples = 1<br/>value = [1, 0]<br/>class = Não Obito>, fillcolor="#e58139"] ;
621 -> 627 ;
628 [label=<CLASSIFIC_INST_SANITARIAS &le; -0.151<br/>gini = 0.475<br/>samples = 18<br/>value = [11, 7]<br/>class = Não Obito>, fillcolor="#f6d1b7"] ;
620 -> 628 ;
629 [label=<SE_IS &le; 0.436<br/>gini = 0.497<br/>samples = 13<br/>value = [6, 7]<br/>class = Óbito>, fillcolor="#e3f1fb"] ;
628 -> 629 ;
630 [label=<CONCENTRACAO_FOCOS_CALOR &le; -0.132<br/>gini = 0.444<br/>samples = 9<br/>value = [3, 6]<br/>class = Óbito>, fillcolor="#9ccef2"] ;
629 -> 630 ;
631 [label=<IDADE &le; 0.731<br/>gini = 0.375<br/>samples = 8<br/>value = [2, 6]<br/>class = Óbito>, fillcolor="#7bbeee"] ;
630 -> 631 ;
632 [label=<GRUPO_RISCO &le; -0.242<br/>gini = 0.444<br/>samples = 3<br/>value = [2, 1]<br/>class = Não Obito>, fillcolor="#f2c09c"] ;
631 -> 632 ;
633 [label=<gini = 0.0<br/>samples = 1<br/>value = [1, 0]<br/>class = Não Obito>, fillcolor="#e58139"] ;
632 -> 633 ;
634 [label=<gini = 0.5<br/>samples = 2<br/>value = [1, 1]<br/>class = Não Obito>, fillcolor="#ffffff"] ;
632 -> 634 ;
635 [label=<gini = 0.0<br/>samples = 5<br/>value = [0, 5]<br/>class = Óbito>, fillcolor="#399de5"] ;
631 -> 635 ;
636 [label=<gini = 0.0<br/>samples = 1<br/>value = [1, 0]<br/>class = Não Obito>, fillcolor="#e58139"] ;
630 -> 636 ;
637 [label=<IDADE &le; 0.637<br/>gini = 0.375<br/>samples = 4<br/>value = [3, 1]<br/>class = Não Obito>, fillcolor="#eeab7b"] ;
629 -> 637 ;
638 [label=<gini = 0.0<br/>samples = 1<br/>value = [0, 1]<br/>class = Óbito>, fillcolor="#399de5"] ;
637 -> 638 ;
639 [label=<gini = 0.0<br/>samples = 3<br/>value = [3, 0]<br/>class = Não Obito>, fillcolor="#e58139"] ;
637 -> 639 ;
640 [label=<gini = 0.0<br/>samples = 5<br/>value = [5, 0]<br/>class = Não Obito>, fillcolor="#e58139"] ;
628 -> 640 ;
641 [label=<gini = 0.0<br/>samples = 50<br/>value = [0, 50]<br/>class = Óbito>, fillcolor="#399de5"] ;
617 -> 641 ;
642 [label=<gini = 0.0<br/>samples = 11<br/>value = [11, 0]<br/>class = Não Obito>, fillcolor="#e58139"] ;
514 -> 642 ;
643 [label=<COD_MUN_LPI &le; -0.209<br/>gini = 0.391<br/>samples = 240<br/>value = [64, 176]<br/>class = Óbito>, fillcolor="#81c1ee"] ;
79 -> 643 ;
644 [label=<COD_MUN_LPI &le; -0.213<br/>gini = 0.473<br/>samples = 104<br/>value = [40, 64]<br/>class = Óbito>, fillcolor="#b5daf5"] ;
643 -> 644 ;
645 [label=<COBERTURA_VEGETAL_NATURAL &le; -1.479<br/>gini = 0.457<br/>samples = 99<br/>value = [35, 64]<br/>class = Óbito>, fillcolor="#a5d3f3"] ;
644 -> 645 ;
646 [label=<gini = 0.0<br/>samples = 4<br/>value = [4, 0]<br/>class = Não Obito>, fillcolor="#e58139"] ;
645 -> 646 ;
647 [label=<SOBRE60 &le; 0.217<br/>gini = 0.44<br/>samples = 95<br/>value = [31, 64]<br/>class = Óbito>, fillcolor="#99ccf2"] ;
645 -> 647 ;
648 [label=<CLASSIFIC_INST_SANITARIAS &le; 0.803<br/>gini = 0.476<br/>samples = 77<br/>value = [30, 47]<br/>class = Óbito>, fillcolor="#b7dcf6"] ;
647 -> 648 ;
649 [label=<CLASSIFIC_INST_SANITARIAS &le; 0.537<br/>gini = 0.432<br/>samples = 57<br/>value = [18, 39]<br/>class = Óbito>, fillcolor="#94caf1"] ;
648 -> 649 ;
650 [label=<TAXA_MORTALIDADE &le; -0.724<br/>gini = 0.489<br/>samples = 40<br/>value = [17, 23]<br/>class = Óbito>, fillcolor="#cbe5f8"] ;
649 -> 650 ;
651 [label=<gini = 0.0<br/>samples = 5<br/>value = [5, 0]<br/>class = Não Obito>, fillcolor="#e58139"] ;
650 -> 651 ;
652 [label=<IDADE &le; 1.727<br/>gini = 0.451<br/>samples = 35<br/>value = [12, 23]<br/>class = Óbito>, fillcolor="#a0d0f3"] ;
650 -> 652 ;
653 [label=<COD_MUN_LPI &le; -0.527<br/>gini = 0.404<br/>samples = 32<br/>value = [9, 23]<br/>class = Óbito>, fillcolor="#86c3ef"] ;
652 -> 653 ;
654 [label=<ANO_IS &le; -0.419<br/>gini = 0.494<br/>samples = 18<br/>value = [8, 10]<br/>class = Óbito>, fillcolor="#d7ebfa"] ;
653 -> 654 ;
655 [label=<TAXA_VACINACAO &le; 0.598<br/>gini = 0.444<br/>samples = 12<br/>value = [8, 4]<br/>class = Não Obito>, fillcolor="#f2c09c"] ;
654 -> 655 ;
656 [label=<TAXA_MORTALIDADE &le; -0.465<br/>gini = 0.219<br/>samples = 8<br/>value = [7, 1]<br/>class = Não Obito>, fillcolor="#e99355"] ;
655 -> 656 ;
657 [label=<gini = 0.0<br/>samples = 1<br/>value = [0, 1]<br/>class = Óbito>, fillcolor="#399de5"] ;
656 -> 657 ;
658 [label=<gini = 0.0<br/>samples = 7<br/>value = [7, 0]<br/>class = Não Obito>, fillcolor="#e58139"] ;
656 -> 658 ;
659 [label=<SE_IS &le; 0.563<br/>gini = 0.375<br/>samples = 4<br/>value = [1, 3]<br/>class = Óbito>, fillcolor="#7bbeee"] ;
655 -> 659 ;
660 [label=<gini = 0.0<br/>samples = 2<br/>value = [0, 2]<br/>class = Óbito>, fillcolor="#399de5"] ;
659 -> 660 ;
661 [label=<SE_IS &le; 2.127<br/>gini = 0.5<br/>samples = 2<br/>value = [1, 1]<br/>class = Não Obito>, fillcolor="#ffffff"] ;
659 -> 661 ;
662 [label=<gini = 0.0<br/>samples = 1<br/>value = [1, 0]<br/>class = Não Obito>, fillcolor="#e58139"] ;
661 -> 662 ;
663 [label=<gini = 0.0<br/>samples = 1<br/>value = [0, 1]<br/>class = Óbito>, fillcolor="#399de5"] ;
661 -> 663 ;
664 [label=<gini = 0.0<br/>samples = 6<br/>value = [0, 6]<br/>class = Óbito>, fillcolor="#399de5"] ;
654 -> 664 ;
665 [label=<SE_IS &le; -0.201<br/>gini = 0.133<br/>samples = 14<br/>value = [1, 13]<br/>class = Óbito>, fillcolor="#48a5e7"] ;
653 -> 665 ;
666 [label=<gini = 0.0<br/>samples = 1<br/>value = [1, 0]<br/>class = Não Obito>, fillcolor="#e58139"] ;
665 -> 666 ;
667 [label=<gini = 0.0<br/>samples = 13<br/>value = [0, 13]<br/>class = Óbito>, fillcolor="#399de5"] ;
665 -> 667 ;
668 [label=<gini = 0.0<br/>samples = 3<br/>value = [3, 0]<br/>class = Não Obito>, fillcolor="#e58139"] ;
652 -> 668 ;
669 [label=<TAXA_MORTALIDADE &le; -0.783<br/>gini = 0.111<br/>samples = 17<br/>value = [1, 16]<br/>class = Óbito>, fillcolor="#45a3e7"] ;
649 -> 669 ;
670 [label=<IDHM &le; -0.109<br/>gini = 0.5<br/>samples = 2<br/>value = [1, 1]<br/>class = Não Obito>, fillcolor="#ffffff"] ;
669 -> 670 ;
671 [label=<gini = 0.0<br/>samples = 1<br/>value = [1, 0]<br/>class = Não Obito>, fillcolor="#e58139"] ;
670 -> 671 ;
672 [label=<gini = 0.0<br/>samples = 1<br/>value = [0, 1]<br/>class = Óbito>, fillcolor="#399de5"] ;
670 -> 672 ;
673 [label=<gini = 0.0<br/>samples = 15<br/>value = [0, 15]<br/>class = Óbito>, fillcolor="#399de5"] ;
669 -> 673 ;
674 [label=<SE_IS &le; -0.367<br/>gini = 0.48<br/>samples = 20<br/>value = [12, 8]<br/>class = Não Obito>, fillcolor="#f6d5bd"] ;
648 -> 674 ;
675 [label=<SE_IS &le; -0.451<br/>gini = 0.32<br/>samples = 10<br/>value = [2, 8]<br/>class = Óbito>, fillcolor="#6ab6ec"] ;
674 -> 675 ;
676 [label=<gini = 0.0<br/>samples = 2<br/>value = [2, 0]<br/>class = Não Obito>, fillcolor="#e58139"] ;
675 -> 676 ;
677 [label=<gini = 0.0<br/>samples = 8<br/>value = [0, 8]<br/>class = Óbito>, fillcolor="#399de5"] ;
675 -> 677 ;
678 [label=<gini = 0.0<br/>samples = 10<br/>value = [10, 0]<br/>class = Não Obito>, fillcolor="#e58139"] ;
674 -> 678 ;
679 [label=<CLASSIFIC_INST_SANITARIAS &le; 1.303<br/>gini = 0.105<br/>samples = 18<br/>value = [1, 17]<br/>class = Óbito>, fillcolor="#45a3e7"] ;
647 -> 679 ;
680 [label=<gini = 0.0<br/>samples = 15<br/>value = [0, 15]<br/>class = Óbito>, fillcolor="#399de5"] ;
679 -> 680 ;
681 [label=<CONCENTRACAO_FOCOS_CALOR &le; 0.009<br/>gini = 0.444<br/>samples = 3<br/>value = [1, 2]<br/>class = Óbito>, fillcolor="#9ccef2"] ;
679 -> 681 ;
682 [label=<gini = 0.0<br/>samples = 2<br/>value = [0, 2]<br/>class = Óbito>, fillcolor="#399de5"] ;
681 -> 682 ;
683 [label=<gini = 0.0<br/>samples = 1<br/>value = [1, 0]<br/>class = Não Obito>, fillcolor="#e58139"] ;
681 -> 683 ;
684 [label=<gini = 0.0<br/>samples = 5<br/>value = [5, 0]<br/>class = Não Obito>, fillcolor="#e58139"] ;
644 -> 684 ;
685 [label=<TAXA_MORTALIDADE &le; -0.817<br/>gini = 0.291<br/>samples = 136<br/>value = [24, 112]<br/>class = Óbito>, fillcolor="#63b2eb"] ;
643 -> 685 ;
686 [label=<SE_IS &le; -0.071<br/>gini = 0.469<br/>samples = 8<br/>value = [5, 3]<br/>class = Não Obito>, fillcolor="#f5cdb0"] ;
685 -> 686 ;
687 [label=<gini = 0.0<br/>samples = 5<br/>value = [5, 0]<br/>class = Não Obito>, fillcolor="#e58139"] ;
686 -> 687 ;
688 [label=<gini = 0.0<br/>samples = 3<br/>value = [0, 3]<br/>class = Óbito>, fillcolor="#399de5"] ;
686 -> 688 ;
689 [label=<IDADE &le; 1.25<br/>gini = 0.253<br/>samples = 128<br/>value = [19, 109]<br/>class = Óbito>, fillcolor="#5caeea"] ;
685 -> 689 ;
690 [label=<COBERTURA_VEGETAL_NATURAL &le; 1.119<br/>gini = 0.069<br/>samples = 56<br/>value = [2, 54]<br/>class = Óbito>, fillcolor="#40a1e6"] ;
689 -> 690 ;
691 [label=<SE_IS &le; -0.655<br/>gini = 0.037<br/>samples = 53<br/>value = [1, 52]<br/>class = Óbito>, fillcolor="#3d9fe6"] ;
690 -> 691 ;
692 [label=<MACACOS_NUM_CASOS &le; 1.914<br/>gini = 0.245<br/>samples = 7<br/>value = [1, 6]<br/>class = Óbito>, fillcolor="#5aade9"] ;
691 -> 692 ;
693 [label=<gini = 0.0<br/>samples = 4<br/>value = [0, 4]<br/>class = Óbito>, fillcolor="#399de5"] ;
692 -> 693 ;
694 [label=<TAXA_VACINACAO &le; -1.634<br/>gini = 0.444<br/>samples = 3<br/>value = [1, 2]<br/>class = Óbito>, fillcolor="#9ccef2"] ;
692 -> 694 ;
695 [label=<gini = 0.0<br/>samples = 1<br/>value = [0, 1]<br/>class = Óbito>, fillcolor="#399de5"] ;
694 -> 695 ;
696 [label=<gini = 0.5<br/>samples = 2<br/>value = [1, 1]<br/>class = Não Obito>, fillcolor="#ffffff"] ;
694 -> 696 ;
697 [label=<gini = 0.0<br/>samples = 46<br/>value = [0, 46]<br/>class = Óbito>, fillcolor="#399de5"] ;
691 -> 697 ;
698 [label=<IDHM &le; -0.258<br/>gini = 0.444<br/>samples = 3<br/>value = [1, 2]<br/>class = Óbito>, fillcolor="#9ccef2"] ;
690 -> 698 ;
699 [label=<gini = 0.0<br/>samples = 1<br/>value = [0, 1]<br/>class = Óbito>, fillcolor="#399de5"] ;
698 -> 699 ;
700 [label=<SE_IS &le; -0.562<br/>gini = 0.5<br/>samples = 2<br/>value = [1, 1]<br/>class = Não Obito>, fillcolor="#ffffff"] ;
698 -> 700 ;
701 [label=<gini = 0.0<br/>samples = 1<br/>value = [0, 1]<br/>class = Óbito>, fillcolor="#399de5"] ;
700 -> 701 ;
702 [label=<gini = 0.0<br/>samples = 1<br/>value = [1, 0]<br/>class = Não Obito>, fillcolor="#e58139"] ;
700 -> 702 ;
703 [label=<IDADE &le; 1.698<br/>gini = 0.361<br/>samples = 72<br/>value = [17, 55]<br/>class = Óbito>, fillcolor="#76bbed"] ;
689 -> 703 ;
704 [label=<COBERTURA_VEGETAL_NATURAL &le; -0.592<br/>gini = 0.472<br/>samples = 42<br/>value = [16, 26]<br/>class = Óbito>, fillcolor="#b3d9f5"] ;
703 -> 704 ;
705 [label=<CLASSIFIC_INST_SANITARIAS &le; 0.488<br/>gini = 0.375<br/>samples = 8<br/>value = [6, 2]<br/>class = Não Obito>, fillcolor="#eeab7b"] ;
704 -> 705 ;
706 [label=<gini = 0.0<br/>samples = 5<br/>value = [5, 0]<br/>class = Não Obito>, fillcolor="#e58139"] ;
705 -> 706 ;
707 [label=<IDADE &le; 1.54<br/>gini = 0.444<br/>samples = 3<br/>value = [1, 2]<br/>class = Óbito>, fillcolor="#9ccef2"] ;
705 -> 707 ;
708 [label=<gini = 0.0<br/>samples = 1<br/>value = [1, 0]<br/>class = Não Obito>, fillcolor="#e58139"] ;
707 -> 708 ;
709 [label=<gini = 0.0<br/>samples = 2<br/>value = [0, 2]<br/>class = Óbito>, fillcolor="#399de5"] ;
707 -> 709 ;
710 [label=<GINI &le; -0.152<br/>gini = 0.415<br/>samples = 34<br/>value = [10, 24]<br/>class = Óbito>, fillcolor="#8bc6f0"] ;
704 -> 710 ;
711 [label=<SE_IS &le; 0.486<br/>gini = 0.208<br/>samples = 17<br/>value = [2, 15]<br/>class = Óbito>, fillcolor="#53aae8"] ;
710 -> 711 ;
712 [label=<gini = 0.0<br/>samples = 12<br/>value = [0, 12]<br/>class = Óbito>, fillcolor="#399de5"] ;
711 -> 712 ;
713 [label=<COBERTURA_VEGETAL_NATURAL &le; 0.178<br/>gini = 0.48<br/>samples = 5<br/>value = [2, 3]<br/>class = Óbito>, fillcolor="#bddef6"] ;
711 -> 713 ;
714 [label=<gini = 0.0<br/>samples = 2<br/>value = [0, 2]<br/>class = Óbito>, fillcolor="#399de5"] ;
713 -> 714 ;
715 [label=<MACACOS_NUM_CASOS &le; -0.431<br/>gini = 0.444<br/>samples = 3<br/>value = [2, 1]<br/>class = Não Obito>, fillcolor="#f2c09c"] ;
713 -> 715 ;
716 [label=<gini = 0.5<br/>samples = 2<br/>value = [1, 1]<br/>class = Não Obito>, fillcolor="#ffffff"] ;
715 -> 716 ;
717 [label=<gini = 0.0<br/>samples = 1<br/>value = [1, 0]<br/>class = Não Obito>, fillcolor="#e58139"] ;
715 -> 717 ;
718 [label=<COBERTURA_VEGETAL_NATURAL &le; 0.84<br/>gini = 0.498<br/>samples = 17<br/>value = [8, 9]<br/>class = Óbito>, fillcolor="#e9f4fc"] ;
710 -> 718 ;
719 [label=<IDADE &le; 1.633<br/>gini = 0.375<br/>samples = 8<br/>value = [6, 2]<br/>class = Não Obito>, fillcolor="#eeab7b"] ;
718 -> 719 ;
720 [label=<SE_IS &le; -0.634<br/>gini = 0.245<br/>samples = 7<br/>value = [6, 1]<br/>class = Não Obito>, fillcolor="#e9965a"] ;
719 -> 720 ;
721 [label=<gini = 0.0<br/>samples = 4<br/>value = [4, 0]<br/>class = Não Obito>, fillcolor="#e58139"] ;
720 -> 721 ;
722 [label=<SE_IS &le; -0.591<br/>gini = 0.444<br/>samples = 3<br/>value = [2, 1]<br/>class = Não Obito>, fillcolor="#f2c09c"] ;
720 -> 722 ;
723 [label=<gini = 0.0<br/>samples = 1<br/>value = [0, 1]<br/>class = Óbito>, fillcolor="#399de5"] ;
722 -> 723 ;
724 [label=<gini = 0.0<br/>samples = 2<br/>value = [2, 0]<br/>class = Não Obito>, fillcolor="#e58139"] ;
722 -> 724 ;
725 [label=<gini = 0.0<br/>samples = 1<br/>value = [0, 1]<br/>class = Óbito>, fillcolor="#399de5"] ;
719 -> 725 ;
726 [label=<GRUPO_RISCO &le; -0.241<br/>gini = 0.346<br/>samples = 9<br/>value = [2, 7]<br/>class = Óbito>, fillcolor="#72b9ec"] ;
718 -> 726 ;
727 [label=<gini = 0.0<br/>samples = 1<br/>value = [1, 0]<br/>class = Não Obito>, fillcolor="#e58139"] ;
726 -> 727 ;
728 [label=<SE_IS &le; 2.043<br/>gini = 0.219<br/>samples = 8<br/>value = [1, 7]<br/>class = Óbito>, fillcolor="#55abe9"] ;
726 -> 728 ;
729 [label=<gini = 0.0<br/>samples = 6<br/>value = [0, 6]<br/>class = Óbito>, fillcolor="#399de5"] ;
728 -> 729 ;
730 [label=<MACACOS_NUM_CASOS &le; 1.285<br/>gini = 0.5<br/>samples = 2<br/>value = [1, 1]<br/>class = Não Obito>, fillcolor="#ffffff"] ;
728 -> 730 ;
731 [label=<gini = 0.0<br/>samples = 1<br/>value = [1, 0]<br/>class = Não Obito>, fillcolor="#e58139"] ;
730 -> 731 ;
732 [label=<gini = 0.0<br/>samples = 1<br/>value = [0, 1]<br/>class = Óbito>, fillcolor="#399de5"] ;
730 -> 732 ;
733 [label=<MACACOS_NUM_CASOS &le; 2.238<br/>gini = 0.064<br/>samples = 30<br/>value = [1, 29]<br/>class = Óbito>, fillcolor="#40a0e6"] ;
703 -> 733 ;
734 [label=<gini = 0.0<br/>samples = 27<br/>value = [0, 27]<br/>class = Óbito>, fillcolor="#399de5"] ;
733 -> 734 ;
735 [label=<SE_IS &le; -0.24<br/>gini = 0.444<br/>samples = 3<br/>value = [1, 2]<br/>class = Óbito>, fillcolor="#9ccef2"] ;
733 -> 735 ;
736 [label=<gini = 0.0<br/>samples = 2<br/>value = [0, 2]<br/>class = Óbito>, fillcolor="#399de5"] ;
735 -> 736 ;
737 [label=<gini = 0.0<br/>samples = 1<br/>value = [1, 0]<br/>class = Não Obito>, fillcolor="#e58139"] ;
735 -> 737 ;
738 [label=<IDADE &le; 1.6<br/>gini = 0.436<br/>samples = 240<br/>value = [163, 77]<br/>class = Não Obito>, fillcolor="#f1bd97"] ;
78 -> 738 ;
739 [label=<COBERTURA_VEGETAL_NATURAL &le; 0.334<br/>gini = 0.408<br/>samples = 224<br/>value = [160, 64]<br/>class = Não Obito>, fillcolor="#efb388"] ;
738 -> 739 ;
740 [label=<IDADE &le; 0.249<br/>gini = 0.467<br/>samples = 143<br/>value = [90, 53]<br/>class = Não Obito>, fillcolor="#f4cbae"] ;
739 -> 740 ;
741 [label=<CONCENTRACAO_FOCOS_CALOR &le; -0.017<br/>gini = 0.387<br/>samples = 80<br/>value = [59, 21]<br/>class = Não Obito>, fillcolor="#eeae7f"] ;
740 -> 741 ;
742 [label=<SOBRE60 &le; -0.647<br/>gini = 0.491<br/>samples = 46<br/>value = [26, 20]<br/>class = Não Obito>, fillcolor="#f9e2d1"] ;
741 -> 742 ;
743 [label=<gini = 0.0<br/>samples = 10<br/>value = [10, 0]<br/>class = Não Obito>, fillcolor="#e58139"] ;
742 -> 743 ;
744 [label=<SE_IS &le; -0.367<br/>gini = 0.494<br/>samples = 36<br/>value = [16, 20]<br/>class = Óbito>, fillcolor="#d7ebfa"] ;
742 -> 744 ;
745 [label=<IDHM &le; -0.035<br/>gini = 0.42<br/>samples = 10<br/>value = [7, 3]<br/>class = Não Obito>, fillcolor="#f0b78e"] ;
744 -> 745 ;
746 [label=<gini = 0.0<br/>samples = 3<br/>value = [0, 3]<br/>class = Óbito>, fillcolor="#399de5"] ;
745 -> 746 ;
747 [label=<gini = 0.0<br/>samples = 7<br/>value = [7, 0]<br/>class = Não Obito>, fillcolor="#e58139"] ;
745 -> 747 ;
748 [label=<GINI &le; -0.582<br/>gini = 0.453<br/>samples = 26<br/>value = [9, 17]<br/>class = Óbito>, fillcolor="#a2d1f3"] ;
744 -> 748 ;
749 [label=<IDADE &le; -0.146<br/>gini = 0.32<br/>samples = 10<br/>value = [8, 2]<br/>class = Não Obito>, fillcolor="#eca06a"] ;
748 -> 749 ;
750 [label=<gini = 0.0<br/>samples = 8<br/>value = [8, 0]<br/>class = Não Obito>, fillcolor="#e58139"] ;
749 -> 750 ;
751 [label=<gini = 0.0<br/>samples = 2<br/>value = [0, 2]<br/>class = Óbito>, fillcolor="#399de5"] ;
749 -> 751 ;
752 [label=<IDADE &le; -0.285<br/>gini = 0.117<br/>samples = 16<br/>value = [1, 15]<br/>class = Óbito>, fillcolor="#46a4e7"] ;
748 -> 752 ;
753 [label=<gini = 0.0<br/>samples = 11<br/>value = [0, 11]<br/>class = Óbito>, fillcolor="#399de5"] ;
752 -> 753 ;
754 [label=<MACACOS_NUM_CASOS &le; -0.37<br/>gini = 0.32<br/>samples = 5<br/>value = [1, 4]<br/>class = Óbito>, fillcolor="#6ab6ec"] ;
752 -> 754 ;
755 [label=<MACACOS_NUM_CASOS &le; -0.424<br/>gini = 0.444<br/>samples = 3<br/>value = [1, 2]<br/>class = Óbito>, fillcolor="#9ccef2"] ;
754 -> 755 ;
756 [label=<gini = 0.0<br/>samples = 1<br/>value = [0, 1]<br/>class = Óbito>, fillcolor="#399de5"] ;
755 -> 756 ;
757 [label=<gini = 0.5<br/>samples = 2<br/>value = [1, 1]<br/>class = Não Obito>, fillcolor="#ffffff"] ;
755 -> 757 ;
758 [label=<gini = 0.0<br/>samples = 2<br/>value = [0, 2]<br/>class = Óbito>, fillcolor="#399de5"] ;
754 -> 758 ;
759 [label=<TAXA_MORTALIDADE &le; -0.1<br/>gini = 0.057<br/>samples = 34<br/>value = [33, 1]<br/>class = Não Obito>, fillcolor="#e6853f"] ;
741 -> 759 ;
760 [label=<gini = 0.0<br/>samples = 33<br/>value = [33, 0]<br/>class = Não Obito>, fillcolor="#e58139"] ;
759 -> 760 ;
761 [label=<gini = 0.0<br/>samples = 1<br/>value = [0, 1]<br/>class = Óbito>, fillcolor="#399de5"] ;
759 -> 761 ;
762 [label=<CLASSIFIC_INST_SANITARIAS &le; -1.188<br/>gini = 0.5<br/>samples = 63<br/>value = [31, 32]<br/>class = Óbito>, fillcolor="#f9fcfe"] ;
740 -> 762 ;
763 [label=<gini = 0.0<br/>samples = 6<br/>value = [0, 6]<br/>class = Óbito>, fillcolor="#399de5"] ;
762 -> 763 ;
764 [label=<CONCENTRACAO_FOCOS_CALOR &le; 0.06<br/>gini = 0.496<br/>samples = 57<br/>value = [31, 26]<br/>class = Não Obito>, fillcolor="#fbebdf"] ;
762 -> 764 ;
